tree
version=v3
num_class=1
num_tree_per_iteration=1
label_index=0
max_feature_idx=17
objective=regression
feature_names=building_id meter site_id primary_use square_feet year_built floor_count air_temperature cloud_coverage dew_temperature age month weekofyear dayofyear hour dayofweek dayofmonth weekofmonth
feature_infos=[0:1448] [0:3] [0:15] [0:15] [5.6454468976432377:13.681979165339751] [-2899:117] [-999:26] [-28.899999999999999:47.200000000000003] [-999:9] [-34.399999999999999:26.100000000000001] [-999:118] [1:12] [1:53] [1:366] [0:23] [0:6] [1:31] [1:5]
tree_sizes=3093 3155 3202 3163 3186 3193 3196 3187 3181 3215 3173 3205 3161 3197 3191 3187 3201 3150 3179 3171 3210 3200 3160 3189 3147 3191 3184 3180 3211 3248 3186 3182 3150 3207 3151 3104 3220 3119 3235 3184 3174 3162 3130 3149 3067 3103 3164 3133 3044 3187 3137 3080 3133 3149 3151 3172 3083 3114 3143 3038 3126 3062 3089 3134 3134 3120 3149 3117 3122 3007 3135 3143 3066 3203 3071 3092 3090 3054 3166 3166 3104 3050 3106 3070 3120 3124 3033 3079 3100 3117 3147 3063 3058 3037 3108 3082 3166 3032 3080 3015 3161 3137 2975 3049 3158 3028 3052 3026 2978 3072 3034 3056 3077 3068 3101 3065 3024 3056 2984 3055 3063 3063 3028 2996 3041 3016 3094 3047 3018 2991 3160 2999 3061 3035 3025 3103 3023 3050 3056 2961 2995 3123 2982 3016 3147 2984 2994 3057 3036 3124 3096 3032 3038 3025 3099 3087 3076 3063 3021 3059 3114 3079 3115 3104 3063 3102 3067 3047 2978 3036 2976 3086 3071 3079 3060 2955 2977 3091 3114 2999 3117 3108 3089 3081 3045 3100 3038 3053 3056 3091 3028 2951 3090 3152 3088 2967 3046 3125 3110 3120

Tree=0
num_leaves=31
num_cat=0
split_feature=4 4 4 1 0 0 13 1 4 4 7 1 7 7 1 0 0 2 0 0 1 13 0 1 0 0 6 10 6 6
split_gain=1.09519e+07 2.8816e+06 2.02275e+06 913460 793885 447922 461865 430268 409225 399978 394683 386292 749946 531149 1.58615e+06 388073 346230 314927 304110 269042 254992 248844 733163 671256 535095 245901 245644 210379 173890 171242
threshold=10.969903232690211 11.920428491916976 9.6401687389341451 2.5000000000000004 1025.5000000000002 76.500000000000014 140.50000000000003 2.5000000000000004 8.4307632494519797 12.687806600599229 10.65 1.5000000000000002 11.750000000000002 14.050000000000002 1.0000000180025095e-35 1224.5000000000002 1313.5000000000002 9.5000000000000018 1083.5000000000002 990.50000000000011 1.5000000000000002 140.50000000000003 106.50000000000001 1.0000000180025095e-35 119.50000000000001 106.50000000000001 -1.0000000180025095e-35 117.00000000000001 -1.0000000180025095e-35 23.500000000000004
decision_type=2 2 2 2 2 2 2 2 2 2 8 2 8 10 2 2 2 2 2 2 2 2 2 2 2 2 2 2 2 2
left_child=2 3 8 11 -5 6 -3 9 -1 27 -9 13 -13 14 25 17 -17 -16 -14 29 -21 22 23 -15 -23 -2 -10 -7 -4 -11
right_child=1 5 28 4 -6 7 -8 10 26 19 -12 12 18 21 15 16 -18 -19 -20 20 -22 24 -24 -25 -26 -27 -28 -29 -30 -31
leaf_value=3.8957333109038563 3.8553312406264024 3.7317738856638778 4.0951048335501765 3.9250528807236713 4.1880751871342961 4.2732800155550503 4.2292889182409281 4.3443986669953674 4.0221458945757602 4.3259843299653644 4.0944417642718465 4.3431695850344223 4.0778522322958031 3.732787049036137 4.0436742072857621 4.2064383337407172 3.9563538423564588 3.8514858011724442 4.2291076463853488 4.3663931190635656 4.5885232773246125 4.359711991851535 4.1845525928444642 4.3697683496516371 4.1955645572387654 4.1888764525395823 3.939325509183472 3.7574409821651047 4.048520974549092 4.0483411346793776
leaf_weight=526699 22438 30220 4332755 275747 196553 3030666 48778 88463 1166953 547440 220951 392985 240588 71052 138573 122242 101181 221624 297043 149623 78946 220598 567403 21565 1990807 1480242 516687 7927 983141 23154
leaf_count=526699 22438 30220 4332755 275747 196553 3030666 48778 88463 1166953 547440 220951 392985 240588 71052 138573 122242 101181 221624 297043 149623 78946 220598 567403 21565 1990807 1480242 516687 7927 983141 23154
internal_value=0 0.655625 -0.922238 0.230363 -1.10772 1.29567 -1.06315 1.3406 -1.72621 1.43206 0.206214 0.337689 0.928866 0.226719 -0.157277 -1.55639 -0.52101 -2.19861 0.161371 2.06157 2.97831 0.505721 -0.0331319 -2.64182 0.666548 0.386117 -1.48555 1.2665 -0.587948 1.69434
internal_weight=0 1.05868e+07 7.52624e+06 6.36064e+06 472300 4.22617e+06 78998 4.14717e+06 2.21034e+06 3.83776e+06 309414 5.88834e+06 930616 4.95772e+06 2.0863e+06 583620 223423 360197 537631 799163 228569 2.87142e+06 660020 92617 2.2114e+06 1.50268e+06 1.68364e+06 3.03859e+06 5.3159e+06 570594
internal_count=18113044 10586809 7526235 6360641 472300 4226168 78998 4147170 2210339 3837756 309414 5888341 930616 4957725 2086300 583620 223423 360197 537631 799163 228569 2871425 660020 92617 2211405 1502680 1683640 3038593 5315896 570594
shrinkage=1


Tree=1
num_leaves=31
num_cat=0
split_feature=4 4 4 1 0 4 4 0 1 13 1 0 7 4 7 0 1 0 0 13 0 1 0 6 1 5 1 0 7 1
split_gain=9.09866e+06 2.74391e+06 774711 540580 579471 554680 483651 390071 391876 374110 296690 663156 246312 238028 222206 217924 206543 201467 213743 263145 734785 380507 274707 200315 199288 188782 181503 364739 237537 786580
threshold=11.480096133399007 9.9476477440322899 12.049687780479086 2.5000000000000004 1018.5000000000001 10.811161198376722 8.4307632494519797 92.500000000000014 2.5000000000000004 140.50000000000003 2.5000000000000004 1227.5000000000002 8.2500000000000018 12.687806600599229 12.750000000000002 990.50000000000011 1.5000000000000002 1233.5000000000002 643.50000000000011 140.50000000000003 98.500000000000014 1.0000000180025095e-35 127.50000000000001 1.0000000180025095e-35 1.5000000000000002 80.500000000000014 1.5000000000000002 1083.5000000000002 13.050000000000002 1.0000000180025095e-35
decision_type=2 2 2 2 2 2 2 2 2 2 2 2 8 2 8 2 2 2 2 2 2 2 2 2 2 2 2 2 10 2
left_child=1 6 10 5 25 -3 -1 9 13 -4 26 14 -10 -9 -12 -15 -17 18 19 20 21 -7 -21 -8 -19 -5 28 -28 29 -2
right_child=2 3 7 4 -6 17 23 8 12 -11 11 -13 -14 15 -16 16 -18 24 -20 22 -22 -23 -24 -25 -26 -27 27 -29 -30 -31
leaf_value=-0.22459584535180613 0.07392386868972281 -0.049783716844049211 -0.37215932973341542 -0.2697710976439473 -0.02025179304095609 -0.38132623241690994 -0.10140304559145337 0.12231340140192766 0.21806605438587678 0.075604203686671645 0.019561913757062233 0.17582141992559025 -0.045007444143263763 0.15249029574220713 -0.22466041042174112 0.19899798228211518 0.39891511346637154 0.019802264764498406 -0.028526766407400928 0.15710398940361636 0.019540292680490335 0.14825082759282013 0.025494517706145661 -0.16523683603475606 0.12776667067179656 -0.061511111574604684 0.0076532162439971714 0.17965718568905406 0.078411752388388684 -0.11928621864619349
leaf_weight=526699 710634 3318332 30220 212515 274495 77014 1782103 2335304 43789 48778 52411 91827 190088 570594 128833 149623 78946 729933 1956274 204320 459279 16469 708718 678870 223265 54737 191386 346461 1621608 299519
leaf_count=526699 710634 3318332 30220 212515 274495 77014 1782103 2335304 43789 48778 52411 91827 190088 570594 128833 149623 78946 729933 1956274 204320 459279 16469 708718 678870 223265 54737 191386 346461 1621608 299519
internal_value=0 -0.555327 0.904561 -0.257506 -1.22301 -0.189519 -1.37625 1.23965 1.29117 -0.956839 0.569014 -0.431143 0.0424804 1.38434 -1.54038 1.85541 2.68048 0.0443182 -0.068934 0.219787 -0.324759 -2.8803 0.549461 -1.19012 0.450905 -2.27116 0.65518 1.18452 0.547 0.166354
internal_weight=0 1.1223e+07 6.89002e+06 8.23535e+06 541747 7.6936e+06 2.98767e+06 3.44734e+06 3.36834e+06 78998 3.44268e+06 273071 233877 3.13447e+06 181244 799163 228569 4.37527e+06 3.42207e+06 1.4658e+06 552762 93483 913038 2.46097e+06 953198 267252 3.16961e+06 537847 2.63176e+06 1.01015e+06
internal_count=18113044 11223023 6890021 8235351 541747 7693604 2987672 3447342 3368344 78998 3442679 273071 233877 3134467 181244 799163 228569 4375272 3422074 1465800 552762 93483 913038 2460973 953198 267252 3169608 537847 2631761 1010153
shrinkage=0.1


Tree=2
num_leaves=31
num_cat=0
split_feature=4 4 4 4 1 1 0 0 1 1 7 10 7 0 13 4 0 7 1 7 1 6 4 10 1 1 2 0 0 13
split_gain=7.36992e+06 2.26985e+06 632313 584239 329425 308207 357412 300626 523733 418108 392302 347575 343293 308104 468398 294100 282849 254958 461737 210990 327214 193580 163615 163209 278041 337525 201380 163189 173132 213147
threshold=11.480096133399007 9.6401687389341451 11.920428491916976 10.811161198376722 2.5000000000000004 2.5000000000000004 1248.5000000000002 1083.5000000000002 1.5000000000000002 1.5000000000000002 8.3500000000000032 14.500000000000002 6.0500000000000007 92.500000000000014 140.50000000000003 8.0322063307085685 1018.5000000000001 12.050000000000002 1.0000000180025095e-35 14.050000000000002 1.0000000180025095e-35 -1.0000000180025095e-35 12.302086301545863 41.500000000000007 2.5000000000000004 1.5000000000000002 4.5000000000000009 1233.5000000000002 643.50000000000011 140.50000000000003
decision_type=2 2 2 2 2 2 2 2 2 2 8 2 10 2 2 2 2 8 2 10 2 2 2 2 2 2 2 2 2 2
left_child=1 15 5 23 27 -2 -7 9 17 13 -11 -12 -10 14 -4 -1 -6 18 -9 20 -15 -17 -13 -3 25 26 -25 28 29 -5
right_child=2 3 7 4 16 6 -8 8 12 10 11 22 -14 19 -16 21 -18 -19 -20 -21 -22 -23 -24 24 -26 -27 -28 -29 -30 -31
leaf_value=-0.232787622271723 0.052879838029933124 -0.041908790303770954 -0.35153740558044438 -0.029228352599417903 -0.19214731106592978 -0.16080190134323266 0.13881105095990054 0.13018856579819063 0.33693521061119419 0.18846531223618002 0.029034524059033142 -0.04797767931778979 0.16490269904947152 0.11381919269652668 0.10592117379233049 -0.10381235317208988 -0.010836229593276285 0.14939773650904886 -0.062271704568837495 0.13800766544015178 -0.045550149275975761 -0.17134038110293065 -0.25974281194925103 -0.048034359792520478 -0.32294945816095821 0.10230879674255502 -0.13343405225461996 0.040581429130456634 -0.025674089759993215 0.049451522486473658
leaf_weight=300287 2466319 3042666 36241 552762 164880 142242 55292 295849 173648 106962 376637 73750 349382 445108 58533 1273196 179942 502500 215425 1338617 181310 636856 72206 545391 47185 98067 559281 953198 1956274 913038
leaf_count=300287 2466319 3042666 36241 552762 164880 142242 55292 295849 173648 106962 376637 73750 349382 445108 58533 1273196 179942 502500 215425 1338617 181310 636856 72206 545391 47185 98067 559281 953198 1956274 913038
internal_value=0 -0.499794 0.814105 -0.277081 -0.0342785 0.432535 -0.769368 1.05462 1.40744 0.853001 0.139793 -0.217337 2.22018 1.07098 -0.690082 -1.40791 -0.975319 0.988126 0.490955 1.15592 0.676914 -1.26328 -1.5274 -0.544064 -0.848291 -0.754873 -0.912711 0.0398864 -0.0620406 0.197809
internal_weight=0 1.1223e+07 6.89002e+06 9.01268e+06 4.72009e+06 2.66385e+06 197534 4.22617e+06 1.5368e+06 2.68936e+06 629555 522593 523030 2.05981e+06 94774 2.21034e+06 344822 1.01377e+06 511274 1.96504e+06 626418 1.91005e+06 145956 4.29259e+06 1.24992e+06 1.20274e+06 1.10467e+06 4.37527e+06 3.42207e+06 1.4658e+06
internal_count=18113044 11223023 6890021 9012684 4720094 2663853 197534 4226168 1536804 2689364 629555 522593 523030 2059809 94774 2210339 344822 1013774 511274 1965035 626418 1910052 145956 4292590 1249924 1202739 1104672 4375272 3422074 1465800
shrinkage=0.1


Tree=3
num_leaves=31
num_cat=0
split_feature=4 4 4 4 0 1 1 1 7 10 0 0 0 3 13 0 3 0 1 0 4 10 7 7 1 1 1 7 7 1
split_gain=5.96963e+06 1.83858e+06 537350 473234 271468 267325 266835 262001 281877 290334 264728 245964 256960 239622 238552 229107 224225 210001 198611 437308 196802 193166 171631 169988 317115 164813 154803 593354 324089 442824
threshold=11.480096133399007 9.6401687389341451 12.049687780479086 10.811161198376722 1083.5000000000002 1.5000000000000002 2.5000000000000004 1.5000000000000002 5.6500000000000012 14.500000000000002 92.500000000000014 1216.5000000000002 1254.5000000000002 4.5000000000000009 142.50000000000003 1018.5000000000001 2.5000000000000004 996.50000000000011 2.5000000000000004 1227.5000000000002 9.0866461480290077 117.00000000000001 14.950000000000001 9.0500000000000025 1.0000000180025095e-35 1.0000000180025095e-35 1.5000000000000002 10.65 21.150000000000002 1.0000000180025095e-35
decision_type=2 2 2 2 2 2 2 2 8 2 2 2 2 2 2 2 2 2 2 2 2 2 8 8 2 2 2 8 10 2
left_child=1 13 18 -3 7 23 26 10 -9 -10 14 -7 16 20 -4 -8 -13 21 -2 22 -1 -12 -20 24 -6 -15 28 -28 29 -5
right_child=2 3 4 6 5 11 15 8 9 -11 17 12 -14 25 -16 -17 -18 -19 19 -21 -22 -23 -24 -25 -26 -27 27 -29 -30 -31
leaf_value=-0.196881238547954 0.052373889356577469 -0.048965754561206797 -0.29744769722526565 0.00010916184391022022 0.13581350198868802 0.28521396668394522 -0.17293258054704397 0.21250072311635948 0.040731820688890807 -0.1362423648561821 0.1209439101674375 -0.22358978355831105 0.20576586327387011 -0.11041813748998051 0.059158992561822388 -0.009752610645051658 0.13396310595815919 -0.016432976652650744 0.0056844406977296785 0.14128102004610513 -0.11025849189170783 -0.37398248273276347 -0.19817733248408526 0.14510616743543547 -0.063577311147931623 -0.0025739192866420816 0.16647495637305798 -0.025116708788840581 0.037111067208404937 -0.095916042621915956
leaf_weight=624445 3169608 4292590 30652 1790829 185217 197653 164880 65967 333331 128411 1519450 31580 150439 967646 48346 179942 39447 125013 63651 91827 452225 7927 117593 443812 140097 166023 259496 428670 1240058 656219
leaf_count=624445 3169608 4292590 30652 1790829 185217 197653 164880 65967 333331 128411 1519450 31580 150439 967646 48346 179942 39447 125013 63651 91827 452225 7927 117593 443812 140097 166023 259496 428670 1240058 656219
internal_value=0 -0.449814 0.732694 -0.249373 1.01177 1.3987 -0.0308506 0.808253 0.191397 -0.0848491 0.996265 2.04124 1.31752 -1.26712 -0.792079 -0.877787 -0.250119 1.08176 0.453239 -0.365071 -1.60498 1.18375 -1.26583 1.04856 0.499455 -0.946246 0.0358978 0.471293 -0.045365 -0.256417
internal_weight=0 1.1223e+07 6.89002e+06 9.01268e+06 3.44734e+06 1.18824e+06 4.72009e+06 2.2591e+06 527709 461742 1.73139e+06 419119 221466 2.21034e+06 78998 344822 71027 1.65239e+06 3.44268e+06 273071 1.07667e+06 1.52738e+06 181244 769126 325314 1.13367e+06 4.37527e+06 688166 3.68711e+06 2.44705e+06
internal_count=18113044 11223023 6890021 9012684 3447342 1188245 4720094 2259097 527709 461742 1731388 419119 221466 2210339 78998 344822 71027 1652390 3442679 273071 1076670 1527377 181244 769126 325314 1133669 4375272 688166 3687106 2447048
shrinkage=0.1


Tree=4
num_leaves=31
num_cat=0
split_feature=4 4 4 1 0 3 4 0 1 7 4 1 7 10 0 13 2 1 0 7 10 0 1 0 13 2 1 0 4 3
split_gain=4.8354e+06 1.5068e+06 435253 318508 345322 285759 285367 219889 216533 230222 216167 212221 240628 216213 214430 193346 170101 160875 354220 158614 156464 155450 333578 216488 201071 700914 329924 255576 147985 146641
threshold=11.480096133399007 9.9476477440322899 12.049687780479086 2.5000000000000004 1018.5000000000001 4.5000000000000009 10.712256663865071 1083.5000000000002 1.5000000000000002 4.3500000000000005 9.0866461480290077 1.5000000000000002 12.250000000000002 14.500000000000002 92.500000000000014 140.50000000000003 9.5000000000000018 2.5000000000000004 1227.5000000000002 9.4500000000000011 117.00000000000001 1167.5000000000002 1.5000000000000002 643.50000000000011 142.50000000000003 1.0000000180025095e-35 1.0000000180025095e-35 127.50000000000001 12.302086301545863 3.5000000000000004
decision_type=2 2 2 2 2 2 2 2 2 10 2 2 8 2 2 2 2 2 2 8 2 2 2 2 2 2 2 2 2 2
left_child=1 5 17 6 -5 10 -3 11 -9 -10 -1 14 -13 -14 15 -4 20 29 -19 -6 -16 23 -23 24 25 26 -8 -26 -15 -2
right_child=2 3 7 4 19 -7 21 8 9 -11 -12 12 13 28 16 -17 -18 18 -20 -21 -22 22 -24 -25 27 -27 -28 -29 -30 -31
leaf_value=-0.1771931119956599 0.064414402713811672 -0.038567390075554001 -0.27004489071276916 -0.17343846528804777 0.078180622123560112 -0.070523634640800123 -0.34348690238184171 0.09437082263448629 0.29942192012052421 0.13623939995966314 -0.099948689841368704 0.13446708720313957 0.023867028399145441 -0.0041441321305163209 0.10884951739654634 0.051851592124689788 -0.014789675674328552 -0.11392488547451357 0.12715291812733881 -0.076604763464784439 -0.33658423376997709 0.002335793462760105 0.11817639666247476 -0.033540014427532606 0.13989661580854482 0.01796635651666675 0.13934555827920664 0.017908328889351822 -0.24024033938538369 0.020359667003283694
leaf_weight=624445 1926514 2812393 30220 267252 111472 1500266 87304 769126 121927 297192 862961 131452 287145 45634 1519450 48778 125013 181244 91827 163023 7927 1038747 326791 1828107 216962 542342 16890 824068 63478 1243094
leaf_count=624445 1926514 2812393 30220 267252 111472 1500266 87304 769126 121927 297192 862961 131452 287145 45634 1519450 48778 125013 181244 91827 163023 7927 1038747 326791 1828107 216962 542342 16890 824068 63478 1243094
internal_value=0 -0.404833 0.659425 -0.184135 -0.92525 -1.01317 -0.131949 0.910594 1.25883 1.83711 -1.32378 0.727428 0.172257 -0.216672 0.896638 -0.712871 0.973586 0.407915 -0.328564 -0.137467 1.06538 0.0142386 0.30058 -0.0969804 0.161295 -0.27671 -2.65219 0.43332 -1.41498 0.471365
internal_weight=0 1.1223e+07 6.89002e+06 8.23535e+06 541747 2.98767e+06 7.6936e+06 3.44734e+06 1.18824e+06 419119 1.48741e+06 2.2591e+06 527709 396257 1.73139e+06 78998 1.65239e+06 3.44268e+06 273071 274495 1.52738e+06 4.88121e+06 1.36554e+06 3.51567e+06 1.68757e+06 646536 104194 1.04103e+06 109112 3.16961e+06
internal_count=18113044 11223023 6890021 8235351 541747 2987672 7693604 3447342 1188245 419119 1487406 2259097 527709 396257 1731388 78998 1652390 3442679 273071 274495 1527377 4881211 1365538 3515673 1687566 646536 104194 1041030 109112 3169608
shrinkage=0.1


Tree=5
num_leaves=31
num_cat=0
split_feature=4 4 4 1 7 4 1 7 7 1 7 0 2 11 0 0 1 7 1 3 7 9 1 7 0 2 13 2 2 1
split_gain=3.93346e+06 1.05803e+06 747504 271617 282591 246644 234619 482862 342458 899406 361859 243966 228421 242867 192994 183352 248367 241220 230686 231410 228506 183007 245815 592639 264707 204791 1.02411e+06 218923 300410 199814
threshold=10.969903232690211 11.800708316639879 9.2655854835672855 2.5000000000000004 10.65 12.87040413738106 1.5000000000000002 8.9500000000000011 18.050000000000004 1.0000000180025095e-35 6.6500000000000012 1224.5000000000002 1.0000000180025095e-35 9.5000000000000018 1119.5000000000002 1083.5000000000002 1.5000000000000002 7.7500000000000009 1.5000000000000002 7.5000000000000009 12.850000000000003 19.350000000000005 1.5000000000000002 8.3500000000000032 1073.5000000000002 1.0000000180025095e-35 140.50000000000003 4.5000000000000009 5.5000000000000009 1.5000000000000002
decision_type=2 2 2 2 8 2 2 8 10 2 10 2 2 2 2 2 2 10 2 2 8 10 2 8 2 2 2 2 2 2
left_child=2 3 -1 6 -5 15 8 -8 9 12 11 -11 13 -2 -9 18 -17 -18 19 -3 -20 22 25 -24 -25 26 -4 -27 -29 -23
right_child=1 5 21 4 -6 -7 7 14 -10 10 -12 -13 -14 -15 -16 16 17 -19 20 -21 -22 29 23 24 -26 27 -28 28 -30 -31
leaf_value=-0.11979065469270114 -0.33505373632336882 0.076405517574919951 -0.34317229462735044 0.057901479901844466 -0.12122185528329127 0.13509854176705693 0.16758737859715303 -0.045794477646169243 0.038273763798175292 -0.2689196710814673 -0.051016653294264885 -0.084459109019930867 0.026084038391382638 0.15839486960218829 0.071708625549495225 0.064230770443907029 0.23335519508124866 0.095803719045855107 0.1029780145390798 -0.047190066777589766 -0.041022557965908341 0.021300119891272739 0.12289925006433633 -0.13206987697066316 0.0079655276850320606 -0.024651356362204752 0.11550422295838692 -0.14833150448187019 -0.055132616429247175 -0.11049529966651046
leaf_weight=1449723 34737 1763026 118719 126404 290462 587718 298340 293824 2047603 181307 404468 118604 1781503 13992 266617 1074084 203325 341834 146254 165727 446980 769843 274592 253174 289159 1731324 82509 417994 2003956 135242
leaf_count=1449723 34737 1763026 118719 126404 290462 587718 298340 293824 2047603 181307 404468 118604 1781503 13992 266617 1074084 203325 341834 146254 165727 446980 769843 274592 253174 289159 1731324 82509 417994 2003956 135242
internal_value=0 0.392914 -0.552694 0.108874 -0.669073 0.744762 0.168477 0.648142 0.0785798 -0.167136 -1.12736 -1.95972 0.202413 -1.93365 0.101049 0.658727 0.921327 1.47106 0.490125 0.657856 -0.0552112 -0.398761 -0.471362 0.0319955 -0.574063 -0.565795 -1.55102 -0.51806 -0.712174 0.0160664
internal_weight=0 1.05868e+07 7.52624e+06 5.85786e+06 416866 4.72895e+06 5.441e+06 858781 4.58221e+06 2.53461e+06 704379 299911 1.83023e+06 48729 560441 4.14123e+06 1.61924e+06 545159 2.52199e+06 1.92875e+06 593234 6.07651e+06 5.17143e+06 816925 542333 4.3545e+06 201228 4.15327e+06 2.42195e+06 905085
internal_count=18113044 10586809 7526235 5857861 416866 4728948 5440995 858781 4582214 2534611 704379 299911 1830232 48729 560441 4141230 1619243 545159 2521987 1928753 593234 6076512 5171427 816925 542333 4354502 201228 4153274 2421950 905085
shrinkage=0.1


Tree=6
num_leaves=31
num_cat=0
split_feature=4 4 4 10 1 4 1 0 0 0 4 6 3 1 7 5 5 7 13 0 0 1 5 4 0 0 0 13 2 1
split_gain=3.2311e+06 1.03051e+06 294351 251428 288464 229305 214752 256455 214239 256953 171617 168661 161735 160032 197002 151896 143773 141685 140159 214922 149670 133147 154469 130737 122277 119117 136097 143132 506661 246153
threshold=11.480096133399007 9.9941277224940048 12.87040413738106 13.500000000000002 2.5000000000000004 8.0322063307085685 2.5000000000000004 1018.5000000000001 1248.5000000000002 1318.5000000000002 10.675245089321495 12.500000000000002 4.5000000000000009 1.5000000000000002 21.150000000000002 63.500000000000007 80.500000000000014 11.950000000000001 140.50000000000003 106.50000000000001 106.50000000000001 1.0000000180025095e-35 69.500000000000014 11.758517817992088 1264.5000000000002 1239.5000000000002 643.50000000000011 142.50000000000003 1.0000000180025095e-35 1.0000000180025095e-35
decision_type=2 2 2 2 2 2 2 2 2 2 2 2 2 2 10 2 2 10 2 2 2 2 2 2 2 2 2 2 2 2
left_child=1 5 3 8 -5 -1 10 16 23 -10 13 -4 -7 14 -3 -6 -8 -15 19 -16 -20 -14 24 -2 -23 26 27 28 29 -12
right_child=2 6 11 4 15 12 7 -9 9 -11 25 -13 21 17 18 -17 -18 -19 20 -21 -22 22 -24 -25 -26 -27 -28 -29 -30 -31
leaf_value=-0.16482128481167665 0.01886330137732601 -0.060518164592289148 0.14123230315023846 0.032802212708315452 0.045480646296301608 -0.098536764185289116 -0.18528870411619336 -0.0071233142042969157 0.14745726463318695 0.010416994038967078 -0.29262103398536515 -0.024502274468854734 -0.065045254696976779 0.13163426551471802 -0.34686894760117731 -0.12973639234704235 -0.0028288733628170732 -0.018537702358624637 0.14045503072523255 -0.025698453132019392 0.00095550272813611195 -0.10344020444737179 0.18557811672002281 0.062778134967788404 0.039400095677492274 0.031042480201345441 -0.023315315980796406 0.036515716765746956 0.015010146994677426 0.1244326711193724
leaf_weight=300287 914062 1511831 518059 1805795 68038 1319821 204648 266631 523786 185200 87304 69659 1229501 106804 26811 181350 54737 152583 89310 93491 553991 102734 42855 2624072 143838 1033890 2246368 1074853 563845 16890
leaf_count=300287 914062 1511831 518059 1805795 68038 1319821 204648 266631 523786 185200 87304 69659 1229501 106804 26811 181350 54737 152583 89310 93491 553991 102734 42855 2624072 143838 1033890 2246368 1074853 563845 16890
internal_value=0 -0.330929 0.539044 0.475925 0.188795 -0.817208 -0.142106 -0.759922 0.614868 1.1166 -0.0991073 1.21589 -0.729303 -0.311232 -0.396067 -0.819337 -1.46785 0.432964 0.0179531 -0.972758 0.203223 -0.506804 0.103423 0.514329 -0.201142 0.00793692 -0.0704584 0.139235 -0.224267 -2.25016
internal_weight=0 1.1223e+07 6.89002e+06 6.3023e+06 2.05518e+06 3.13904e+06 8.08399e+06 526016 4.24712e+06 708986 7.55797e+06 587718 2.83875e+06 2.53482e+06 2.27543e+06 249388 259385 259387 763603 120302 643301 1.51893e+06 289427 3.53813e+06 246572 5.02315e+06 3.98926e+06 1.74289e+06 668039 104194
internal_count=18113044 11223023 6890021 6302303 2055183 3139036 8083987 526016 4247120 708986 7557971 587718 2838749 2534821 2275434 249388 259385 259387 763603 120302 643301 1518928 289427 3538134 246572 5023150 3989260 1742892 668039 104194
shrinkage=0.1


Tree=7
num_leaves=31
num_cat=0
split_feature=4 4 4 4 6 0 13 1 7 4 0 0 0 1 1 0 0 10 3 1 1 7 7 0 0 1 1 10 4 10
split_gain=2.61719e+06 851335 254914 202727 163710 153981 156895 139262 201586 135382 147315 131801 130017 186919 137165 148300 133483 129785 129194 148770 168517 322886 145840 115403 154404 116893 128559 111080 116528 110705
threshold=11.480096133399007 9.6401687389341451 12.096859967378284 10.811161198376722 1.0000000180025095e-35 92.500000000000014 142.50000000000003 2.5000000000000004 10.050000000000002 12.687806600599229 990.50000000000011 1227.5000000000002 1167.5000000000002 2.5000000000000004 1.5000000000000002 1203.5000000000002 1207.5000000000002 1.5000000000000002 3.5000000000000004 1.5000000000000002 1.0000000180025095e-35 9.0500000000000025 9.9500000000000011 1129.5000000000002 1321.5000000000002 1.5000000000000002 1.0000000180025095e-35 117.00000000000001 12.537467437186288 41.500000000000007
decision_type=2 2 2 2 2 2 2 2 8 2 2 2 2 2 2 2 2 2 2 2 2 8 10 2 2 2 2 2 2 2
left_child=1 4 7 29 -1 6 -4 18 -9 27 -11 -10 13 17 -14 -16 -17 -5 23 20 -20 -22 -21 -2 -25 26 -26 28 -7 -3
right_child=2 3 5 12 -6 9 -8 8 11 10 -12 -13 14 -15 15 16 -18 -19 19 22 21 -23 -24 24 25 -27 -28 -29 -30 -31
leaf_value=-0.065780129337805235 0.037311367759663538 -0.021578139920135304 -0.24598904809398703 -0.023839754048185318 -0.1231513587070048 0.070961058590424564 0.043214315308051386 0.093354282369653374 -0.1366447150257481 0.080601654066294257 0.17358538459323125 0.040936127329084616 0.002144255017704422 -0.1074451724711481 0.23650567203334574 -0.36125523641567453 0.057507420713596415 0.017549077087830812 0.024048698204577341 0.17202580015638125 -0.19880677713859909 0.0042907684698459949 0.016206779668849657 0.13892246721481441 0.053424723806187652 0.12960831762045014 -0.12538410650269721 -0.31384657919670067 0.0098303744216318243 -0.056926960846559842
leaf_weight=1454493 1484775 3042666 30652 1828410 755846 1939608 48346 86362 152871 609898 236439 57522 951083 195666 47359 7761 396127 1293688 697300 103451 114598 246986 143231 302979 106381 84494 64642 7927 371559 1249924
leaf_count=1454493 1484775 3042666 30652 1828410 755846 1939608 48346 86362 152871 609898 236439 57522 951083 195666 47359 7761 396127 1293688 697300 103451 114598 246986 143231 302979 106381 84494 64642 7927 371559 1249924
internal_value=0 -0.297836 0.48514 -0.161441 -0.853988 0.689032 -0.689994 0.303683 -0.352884 0.723448 1.06578 -0.880936 -0.0184162 -0.126318 0.236867 0.690912 0.494606 -0.0668967 0.361865 0.116146 -0.0467846 -0.600776 0.815526 0.518869 0.906363 0.33381 -0.141601 0.598515 0.611333 -0.318711
internal_weight=0 1.1223e+07 6.89002e+06 9.01268e+06 2.21034e+06 3.24443e+06 78998 3.64559e+06 296755 3.16543e+06 846337 210393 4.72009e+06 3.31776e+06 1.40233e+06 451247 403888 3.1221e+06 3.34884e+06 1.30557e+06 1.05888e+06 361584 246682 2.04327e+06 558496 255517 171023 2.31909e+06 2.31117e+06 4.29259e+06
internal_count=18113044 11223023 6890021 9012684 2210339 3244429 78998 3645592 296755 3165431 846337 210393 4720094 3317764 1402330 451247 403888 3122098 3348837 1305566 1058884 361584 246682 2043271 558496 255517 171023 2319094 2311167 4292590
shrinkage=0.1


Tree=8
num_leaves=31
num_cat=0
split_feature=4 4 4 1 1 7 1 7 9 1 7 0 1 13 0 13 0 5 7 0 9 2 13 1 1 1 7 0 7 1
split_gain=2.13356e+06 575348 438374 166406 156891 195594 165482 374090 290913 559219 421349 234838 216437 222322 310854 208981 204964 162041 156838 131387 128227 177848 819678 163796 160359 138013 454531 195573 156371 213817
threshold=10.969903232690211 11.800708316639879 9.1813741929945163 2.5000000000000004 2.5000000000000004 8.0500000000000025 1.5000000000000002 13.350000000000003 13.050000000000002 1.0000000180025095e-35 8.2500000000000018 106.50000000000001 1.0000000180025095e-35 140.50000000000003 106.50000000000001 142.50000000000003 1224.5000000000002 88.500000000000014 14.450000000000001 119.50000000000001 19.850000000000005 1.0000000180025095e-35 140.50000000000003 1.0000000180025095e-35 1.5000000000000002 1.5000000000000002 7.2500000000000009 1073.5000000000002 18.050000000000004 1.0000000180025095e-35
decision_type=2 2 2 2 2 8 2 10 10 2 10 2 2 2 2 2 2 2 8 2 10 2 2 2 2 2 8 2 10 2
left_child=2 4 -1 -3 6 -6 8 -8 9 11 16 15 13 14 -10 -2 -11 -14 -5 -15 21 22 23 -4 -22 28 -27 -28 29 -23
right_child=1 3 20 18 5 -7 7 -9 12 10 -12 -13 17 19 -16 -17 -18 -19 -20 -21 24 25 -24 -25 -26 26 27 -29 -30 -31
leaf_value=-0.093495286530059993 -0.29824465903014841 0.060307485877344115 -0.32256957683273413 0.073907736979701211 0.074672680571731223 -0.088428796149475589 0.1236041757439385 -0.0087217839129346223 -0.31373818688571181 -0.22662972384991079 -0.026018737489816465 0.021248485994178404 0.072550878182445239 0.12175266507698618 0.027391716926181947 0.13929138654797857 -0.069070566042056802 0.23484422736197208 -0.061229008465550329 0.015725489595572625 0.024874625004063834 -0.039997259314827581 0.10588636829981345 0.14190408285121953 -0.10060319493241457 0.11929013069080573 -0.10475291122390085 0.011147997200139446 -0.012407909598393456 -0.11252081705384519
leaf_weight=1301103 42091 4364100 115225 138327 95323 321543 399307 459474 46865 208971 606541 2096586 390129 137893 62121 14739 136491 73039 226521 766748 711451 2375449 89255 8128 118866 247470 270384 315447 1483001 490456
leaf_count=1301103 42091 4364100 115225 138327 95323 321543 399307 459474 46865 208971 606541 2096586 390129 137893 62121 14739 136491 73039 226521 766748 711451 2375449 89255 8128 118866 247470 270384 315447 1483001 490456
internal_value=0 0.289376 -0.407052 0.548836 0.079919 -0.511331 0.125218 0.528058 0.0497194 -0.124038 -0.762266 0.158116 0.415099 0.156316 -1.19297 -1.84769 -1.64379 0.981436 -0.0999381 0.31887 -0.296717 -0.353022 -1.24943 -2.91964 0.0691155 -0.316246 0.056568 -0.423448 -0.387681 -0.524086
internal_weight=0 1.05868e+07 7.52624e+06 4.72895e+06 5.85786e+06 416866 5.441e+06 858781 4.58221e+06 3.10542e+06 952003 2.15342e+06 1.4768e+06 1.01363e+06 108986 56830 345462 463168 364848 904641 6.22513e+06 5.39482e+06 212608 123353 830317 5.18221e+06 833301 585831 4.34891e+06 2.8659e+06
internal_count=18113044 10586809 7526235 4728948 5857861 416866 5440995 858781 4582214 3105419 952003 2153416 1476795 1013627 108986 56830 345462 463168 364848 904641 6225132 5394815 212608 123353 830317 5182207 833301 585831 4348906 2865905
shrinkage=0.1


Tree=9
num_leaves=31
num_cat=0
split_feature=4 4 10 1 3 0 0 4 1 7 7 14 1 5 4 10 0 4 10 5 1 7 7 1 0 0 9 0 13 0
split_gain=1.74675e+06 592810 199778 179629 172907 167832 221256 181140 147832 165187 129779 121768 111369 123048 106206 97125.8 90030.3 85764.4 104630 78391.7 77969.1 169009 79425.6 113099 91070.1 131182 77870.9 122010 483466 93954.8
threshold=11.480096133399007 9.9941277224940048 13.500000000000002 2.5000000000000004 4.5000000000000009 1248.5000000000002 1318.5000000000002 13.228935582428543 2.5000000000000004 12.250000000000002 19.450000000000003 6.5000000000000009 1.0000000180025095e-35 69.500000000000014 9.0866461480290077 11.500000000000002 1264.5000000000002 12.362648940060668 9.5000000000000018 3.5000000000000004 1.5000000000000002 14.450000000000001 22.250000000000004 1.0000000180025095e-35 1219.5000000000002 1000.5000000000001 21.150000000000002 106.50000000000001 140.50000000000003 653.50000000000011
decision_type=2 2 2 2 2 2 2 2 2 8 8 2 2 2 2 2 2 2 2 2 2 8 8 2 2 2 10 2 2 2
left_child=1 4 5 19 14 7 -7 15 11 -10 -5 20 -6 16 -1 17 -14 -2 -19 -4 22 -22 23 -3 25 -25 27 28 -21 -29
right_child=2 8 3 10 12 6 -8 -9 9 -11 -12 -13 13 -15 -16 -17 -18 18 -20 26 21 -23 -24 24 -26 -27 -28 29 -30 -31
leaf_value=-0.11687027578463245 0.025778835007546897 -0.031014187490071815 -0.28849267054659822 0.018641249637498532 -0.050545575378844021 0.12739224974102639 0.00094824469125149257 0.15436397451221343 0.01348236525318963 -0.10327997146996376 -0.12490812506167362 0.0016915315293696506 -0.080650114687198876 0.17443311866715794 -0.063466608743956807 0.122880545387203 0.041916535870545633 0.064387760851275899 -0.12017415321915244 -0.28999557537784554 0.096234435546224642 -0.052537622273548315 -0.0018078871148399667 -0.080712873735580795 -0.036186469642133699 -0.25763132778265008 0.12421245575674802 0.049215662793276903 0.1506469529472165 0.0034807961061015698
leaf_weight=624445 2514068 1034000 7927 110162 1302561 547495 185200 141444 189256 336760 147047 5357629 102734 42855 922603 133425 143838 1079798 31616 53494 150259 155264 550352 113708 130383 66376 78511 993155 46582 820097
leaf_count=624445 2514068 1034000 7927 110162 1302561 547495 185200 141444 189256 336760 147047 5357629 102734 42855 922603 133425 143838 1079798 31616 53494 150259 155264 550352 113708 130383 66376 78511 993155 46582 820097
internal_value=0 -0.243318 0.396336 0.152368 -0.612141 0.515185 0.954316 0.432693 -0.100103 -0.612699 -0.634263 -0.064428 -0.38078 0.180322 -0.850223 0.390889 -0.0915075 0.360052 0.591376 0.253544 -0.262491 0.206298 -0.33808 -0.469071 -0.998378 -1.45922 0.266035 0.225982 -0.848914 0.285307
internal_weight=0 1.1223e+07 6.89002e+06 2.25698e+06 3.13904e+06 4.63305e+06 732695 3.90035e+06 8.08399e+06 526016 257209 7.55797e+06 1.59199e+06 289427 1.54705e+06 3.75891e+06 246572 3.62548e+06 1.11141e+06 1.99977e+06 2.20034e+06 305523 1.89482e+06 1.34447e+06 310467 180084 1.99184e+06 1.91333e+06 100076 1.81325e+06
internal_count=18113044 11223023 6890021 2256975 3139036 4633046 732695 3900351 8083987 526016 257209 7557971 1591988 289427 1547048 3758907 246572 3625482 1111414 1999766 2200342 305523 1894819 1344467 310467 180084 1991839 1913328 100076 1813252
shrinkage=0.1


Tree=10
num_leaves=31
num_cat=0
split_feature=4 4 4 1 7 1 7 9 1 7 1 2 13 0 13 0 4 2 0 10 4 0 3 4 3 6 1 9 2 13
split_gain=1.45185e+06 388254 285892 138856 169024 124015 339956 231126 458188 379081 185519 181622 164932 242380 157701 151550 176717 150808 177525 115312 111415 110909 109296 191371 150975 148941 168993 101690 143385 715956
threshold=10.969903232690211 11.920428491916976 9.1813741929945163 2.5000000000000004 13.350000000000003 1.5000000000000002 7.1500000000000012 13.050000000000002 1.0000000180025095e-35 9.3500000000000032 1.0000000180025095e-35 1.0000000180025095e-35 140.50000000000003 106.50000000000001 142.50000000000003 1083.5000000000002 10.992688827083926 13.500000000000002 1313.5000000000002 51.500000000000007 7.3466083951291834 42.500000000000007 7.5000000000000009 12.687806600599229 8.5000000000000018 10.500000000000002 1.0000000180025095e-35 20.550000000000004 1.0000000180025095e-35 140.50000000000003
decision_type=2 2 2 2 8 2 8 10 2 10 2 2 2 2 2 2 2 2 2 2 2 2 2 2 2 2 2 10 2 2
left_child=2 3 19 5 -5 7 -7 8 11 17 12 14 13 -9 -2 16 -8 -10 -19 20 -1 -12 23 -3 -24 -25 -27 28 29 -4
right_child=1 22 27 4 -6 6 15 10 9 -11 21 -13 -14 -15 -16 -17 -18 18 -20 -21 -22 -23 24 25 -26 26 -28 -29 -30 -31
leaf_value=-0.14804580534686618 -0.25927218478797065 0.042315107410318291 -0.26303012877129722 0.033703451200466243 -0.090019258567176255 0.13914188398762828 0.32548641779829041 -0.27372716087001753 -0.19069572360217404 -0.016077106324610894 0.25200533941150693 0.020277925924370444 0.027938217112710037 0.023583385177652461 0.12080981430948896 0.047708828134326989 -0.066830056732334206 0.033073142932766614 -0.17770243802966018 -0.15470921821484204 -0.053136771221849705 0.074805962061057163 -0.091734043940870758 0.11900968630036886 0.036688083813778548 0.1735852679940503 -0.11232547139679959 0.010347607021759655 -0.025998503088212489 0.09761809679140436
leaf_weight=141221 42091 3079418 127729 176023 296277 275508 12005 46865 238835 637841 38283 2290251 965545 66089 14739 379703 263400 85563 74973 163600 996282 456650 126440 595592 331680 31007 62031 731876 5268795 96732
leaf_count=141221 42091 3079418 127729 176023 296277 275508 12005 46865 238835 637841 38283 2290251 965545 66089 14739 379703 263400 85563 74973 163600 996282 456650 126440 595592 331680 31007 62031 731876 5268795 96732
internal_value=0 0.23871 -0.335783 0.082612 -0.439086 0.124457 0.45942 0.0615812 -0.0856408 -0.639141 0.378241 0.15896 0.145628 -0.997718 -1.60697 0.0674639 -0.497288 -1.40315 -0.653626 -0.762098 -0.649197 0.885123 0.473648 0.529722 0.0124389 1.00629 -0.170393 -0.24668 -0.293332 -1.07608
internal_weight=0 1.05868e+07 7.52624e+06 6.36064e+06 472300 5.88834e+06 930616 4.95772e+06 3.38429e+06 1.03721e+06 1.57343e+06 2.34708e+06 1.0785e+06 112954 56830 655108 275405 399371 160536 1.3011e+06 1.1375e+06 494933 4.22617e+06 3.76805e+06 458120 688630 93038 6.22513e+06 5.49326e+06 224461
internal_count=18113044 10586809 7526235 6360641 472300 5888341 930616 4957725 3384293 1037212 1573432 2347081 1078499 112954 56830 655108 275405 399371 160536 1301103 1137503 494933 4226168 3768048 458120 688630 93038 6225132 5493256 224461
shrinkage=0.1


Tree=11
num_leaves=31
num_cat=0
split_feature=4 4 6 1 7 1 13 0 0 1 1 0 5 4 6 5 3 13 0 1 1 1 7 0 0 4 14 10 5 0
split_gain=1.17956e+06 449550 194816 157073 171784 138668 120518 463387 262091 209715 137182 119272 124822 117296 143221 115249 105291 91356.3 522803 308586 200148 237682 342359 186300 167520 105026 88919.7 85011.1 121525 85702.6
threshold=11.551424764074545 10.385642572040945 -1.0000000180025095e-35 2.5000000000000004 6.3500000000000005 2.5000000000000004 140.50000000000003 150.50000000000003 150.50000000000003 1.0000000180025095e-35 1.5000000000000002 1219.5000000000002 105.50000000000001 12.93582690427213 12.500000000000002 94.500000000000014 4.5000000000000009 140.50000000000003 106.50000000000001 1.0000000180025095e-35 1.5000000000000002 1.0000000180025095e-35 6.6500000000000012 169.50000000000003 1073.5000000000002 12.867649160592224 6.5000000000000009 38.500000000000007 77.500000000000014 1233.5000000000002
decision_type=2 2 2 2 8 2 2 2 2 2 2 2 2 2 2 2 2 2 2 2 2 2 10 2 2 2 2 2 2 2
left_child=1 2 6 13 -5 26 7 9 -8 -1 -9 12 -7 17 -15 16 -4 18 19 -2 21 -20 -23 25 -22 -19 -3 29 -29 -25
right_child=3 5 15 4 -6 11 8 10 -10 -11 -12 -13 -14 14 -16 -17 -18 23 20 -21 24 22 -24 27 -26 -27 -28 28 -30 -31
leaf_value=-0.27832887069047335 -0.3095463741407285 -0.017747022888639941 -0.10682213347390444 0.10844439315549866 -0.046500065659329903 -0.12318043971963749 0.089415060046975248 -0.047664600916110793 -0.028047409328242123 0.18900825166981572 0.063787047660940663 0.0032337162001187299 0.11971394727519372 0.10577726675810409 -0.079414649002233884 0.048927358696565407 -0.045964707548265718 0.17034828877328262 0.041062598794701421 0.26697119744308606 0.01810557812011954 -0.14903401249448156 0.016223092879335998 0.038432924315677144 0.14904280849845047 -0.022076758773925981 0.0076450632238037651 0.015970300945346416 -0.21592472004196753 0.084967750689267763
leaf_weight=113567 69409 1945604 753974 86572 412456 235436 211886 947558 1835397 10489 125010 188493 23246 415691 46424 69076 456370 167806 1007268 10718 174078 190619 366179 2049893 222727 34134 4736586 692561 23361 490456
leaf_count=113567 69409 1945604 753974 86572 412456 235436 211886 947558 1835397 10489 125010 188493 23246 415691 46424 69076 456370 167806 1007268 10718 174078 190619 366179 2049893 222727 34134 4736586 692561 23361 490456
internal_value=0 -0.190011 -0.436599 0.342727 -0.196201 -0.0335596 -0.306266 -0.558383 -0.158905 -2.38815 -0.346747 -0.572678 -1.01353 0.387842 0.871729 -0.767053 -0.838753 0.347179 0.179405 -2.3243 0.281714 0.120793 -0.403524 0.446197 0.916008 1.37823 0.00251837 0.388397 0.0840342 0.474172
internal_weight=0 1.16527e+07 4.52333e+06 6.46035e+06 499028 7.12936e+06 3.24391e+06 1.19662e+06 2.04728e+06 124056 1.07257e+06 447175 258682 5.96132e+06 462115 1.27942e+06 1.21034e+06 5.49921e+06 2.041e+06 80127 1.96087e+06 1.56407e+06 556798 3.45821e+06 396805 201940 6.68219e+06 3.25627e+06 715922 2.54035e+06
internal_count=18113044 11652692 4523327 6460352 499028 7129365 3243907 1196624 2047283 124056 1072568 447175 258682 5961324 462115 1279420 1210344 5499209 2040998 80127 1960871 1564066 556798 3458211 396805 201940 6682190 3256271 715922 2540349
shrinkage=0.1


Tree=12
num_leaves=31
num_cat=0
split_feature=4 4 4 2 1 5 13 0 1 0 13 14 6 4 0 1 7 7 1 0 0 1 7 6 13 0 6 4 1 0
split_gain=971572 290251 189956 137267 216413 138722 155999 178552 199131 113755 99623.4 89463.3 86087.4 95122 84374.7 222744 176743 163376 270112 146467 359184 134687 196944 163484 143852 314298 132702 100444 98274.5 83566.8
threshold=10.88109895322974 11.920428491916976 9.4088219395818751 13.500000000000002 2.5000000000000004 90.500000000000014 140.50000000000003 106.50000000000001 1.0000000180025095e-35 1294.5000000000002 102.50000000000001 6.5000000000000009 2.5000000000000004 7.6680258403856074 1083.5000000000002 1.5000000000000002 3.3500000000000001 14.950000000000001 1.0000000180025095e-35 1233.5000000000002 1318.5000000000002 1.5000000000000002 3.3500000000000001 12.500000000000002 138.50000000000003 119.50000000000001 23.500000000000004 13.228935582428543 1.0000000180025095e-35 968.50000000000011
decision_type=2 2 2 2 2 2 2 2 2 2 2 2 2 2 2 2 8 10 2 2 2 2 8 2 2 2 2 2 2 2
left_child=2 3 12 4 5 11 7 8 -7 -5 -6 -2 13 -1 21 17 -17 18 -16 -20 -21 24 -23 -24 25 28 -27 -18 -3 -26
right_child=1 14 -4 9 10 6 -8 -9 -10 -11 -12 -13 -14 -15 15 16 27 -19 19 20 -22 22 23 -25 29 26 -28 -29 -30 -31
leaf_value=-0.1138020939548212 -0.02498320702942057 -0.2741442745527542 -0.019669521829277066 0.064999559756425726 0.0081567287903519092 -0.22267219938088376 0.09313405364063676 0.060246732280569315 0.16147360888576218 0.010646856599697357 -0.11460039385081873 0.0064342435615694568 -0.15930600135981615 -0.043527671526260123 0.054054316799789642 0.20482746499478438 0.062301995242633357 0.07708236246768628 -0.16386554346171711 0.14974065528992564 -0.18582870276914723 0.15520695591836034 -0.020881949304420236 -0.32065246754416943 0.072573381712421101 0.027752057327367526 -0.45454433449370574 0.28703198031666388 0.17624330932725876 0.0044137862243879044
leaf_weight=222137 1279222 47653 5247781 613804 91454 60427 332198 112212 17374 1033249 238560 3109618 79607 1449233 336929 144417 357553 430512 118415 67204 60714 63251 547486 18818 1072583 712305 5751 21060 5393 216124
leaf_count=222137 1279222 47653 5247781 613804 91454 60427 332198 112212 17374 1033249 238560 3109618 79607 1449233 336929 144417 357553 430512 118415 67204 60714 63251 547486 18818 1072583 712305 5751 21060 5393 216124
internal_value=0 0.183786 -0.291858 0.0572044 -0.0219321 0.0307436 0.517978 -0.2047 -1.36887 0.309024 -0.805817 -0.0272305 -0.577068 -0.528676 0.390097 0.577014 1.10704 0.303559 -0.0413348 -0.837215 -0.0953136 0.283286 -0.121508 -0.308432 0.407006 0.0653678 0.238893 0.748024 -2.28355 0.611426
internal_weight=0 1.11143e+07 6.99876e+06 6.88812e+06 5.24106e+06 4.91105e+06 522211 190013 77801 1.64705e+06 330014 4.38884e+06 1.75098e+06 1.67137e+06 4.22617e+06 1.5368e+06 523030 1.01377e+06 583262 246333 127918 2.68936e+06 629555 566304 2.05981e+06 771102 718056 378613 53046 1.28871e+06
internal_count=18113044 11114286 6998758 6888118 5241065 4911051 522211 190013 77801 1647053 330014 4388840 1750977 1671370 4226168 1536804 523030 1013774 583262 246333 127918 2689364 629555 566304 2059809 771102 718056 378613 53046 1288707
shrinkage=0.1


Tree=13
num_leaves=31
num_cat=0
split_feature=4 4 6 1 7 1 7 13 0 0 1 1 5 4 6 0 3 1 7 7 1 0 0 4 7 1 1 0 5 0
split_gain=794489 303478 147888 114606 126036 100389 101484 97700.4 369684 217096 171010 109884 90712.8 90622.2 94113.9 85589.5 83567.6 134826 158386 133583 262620 132675 187922 120519 116646 106562 99611.1 76125.2 75017 76460.8
threshold=11.551424764074545 10.385642572040945 1.0000000180025095e-35 2.5000000000000004 16.150000000000002 2.5000000000000004 5.6500000000000012 142.50000000000003 150.50000000000003 150.50000000000003 1.0000000180025095e-35 1.5000000000000002 94.500000000000014 12.898382875995344 23.500000000000004 820.50000000000011 1.0000000180025095e-35 1.5000000000000002 11.050000000000002 17.250000000000004 1.0000000180025095e-35 1083.5000000000002 230.50000000000003 12.452466059831641 6.0500000000000007 1.0000000180025095e-35 1.5000000000000002 1332.5000000000002 105.50000000000001 1219.5000000000002
decision_type=2 2 2 2 8 2 8 2 2 2 2 2 2 2 2 2 2 2 8 10 2 2 2 2 8 2 2 2 2 2
left_child=1 2 7 13 -5 -3 -7 8 10 -9 -1 -10 15 16 -15 -4 21 19 -19 20 -18 22 -2 -23 -22 -21 -25 -13 29 -8
right_child=3 5 12 4 -6 6 28 9 11 -11 -12 27 -14 14 -16 -17 17 18 -20 25 24 23 -24 26 -26 -27 -28 -29 -30 -31
leaf_value=-0.24475250166301699 0.09013567878904416 0.00032997465268099689 -0.091160505901685021 0.040035920689102361 -0.061495103209889171 0.05443150404062002 -0.12009666891291193 0.085195264670569398 -0.039709665932508034 -0.022184745692139619 0.17225784872056293 0.024341853680777733 0.04681376692853087 0.081238909075061441 -0.12504547338352331 -0.035918595770364319 0.015230081842502595 0.12709363582363162 0.014977966006094105 0.0054361969573004706 -0.15185258493082876 0.057404206392791882 0.012853682033529988 0.10796379447648446 -0.039233627046724423 0.073047588388219162 0.29888385344971219 0.23093150946052862 0.10926995576882266 -0.024121867281141893
leaf_weight=115171 386095 6682190 768789 214237 284791 78748 208862 210019 961985 1818998 10752 105517 69076 493700 23154 441555 715113 213043 308415 634218 162602 609555 1700255 96784 211723 368587 38080 21465 21806 137759
leaf_count=115171 386095 6682190 768789 214237 284791 78748 208862 210019 961985 1818998 10752 105517 69076 493700 23154 441555 715113 213043 308415 634218 162602 609555 1700255 96784 211723 368587 38080 21465 21806 137759
internal_value=0 -0.155942 -0.358546 0.281276 -0.17907 -0.0273973 -0.486108 -0.24499 -0.469268 -0.110701 -2.09146 -0.281686 -0.646461 0.319812 0.719978 -0.710073 0.281824 0.15289 0.607831 0.0395038 -0.202921 0.40087 0.271553 0.763302 -0.881539 0.302872 1.61872 0.592637 -0.706351 -0.81953
internal_weight=0 1.16527e+07 4.52333e+06 6.46035e+06 499028 7.12936e+06 447175 3.24391e+06 1.21489e+06 2.02902e+06 125923 1.08897e+06 1.27942e+06 5.96132e+06 516854 1.21034e+06 5.44447e+06 2.6137e+06 521458 2.09224e+06 1.08944e+06 2.83077e+06 2.08635e+06 744419 374325 1.0028e+06 134864 126982 368427 346621
internal_count=18113044 11652692 4523327 6460352 499028 7129365 447175 3243907 1214890 2029017 125923 1088967 1279420 5961324 516854 1210344 5444470 2613701 521458 2092243 1089438 2830769 2086350 744419 374325 1002805 134864 126982 368427 346621
shrinkage=0.1


Tree=14
num_leaves=31
num_cat=0
split_feature=4 4 4 6 10 6 13 2 0 1 1 7 5 0 1 1 7 1 0 4 4 3 4 3 6 1 13 0 10 1
split_gain=654671 175188 156735 100450 112238 131772 100571 636538 310915 129928 118489 173952 96129.6 90449.2 154547 83744.2 89340.8 160778 79418.8 89452.7 89327.6 78335.2 127850 106719 89794 196249 74543.5 72462.3 72115.4 72012
threshold=11.003631997966894 11.920428491916976 8.4307632494519797 -1.0000000180025095e-35 41.500000000000007 4.5000000000000009 140.50000000000003 1.5000000000000002 159.50000000000003 1.0000000180025095e-35 1.5000000000000002 6.1500000000000012 105.50000000000001 1171.5000000000002 2.5000000000000004 1.5000000000000002 9.4500000000000011 1.0000000180025095e-35 1438.5000000000002 11.218735148417073 11.20782484492692 7.5000000000000009 12.687806600599229 8.5000000000000018 5.5000000000000009 1.0000000180025095e-35 104.50000000000001 1216.5000000000002 117.00000000000001 1.5000000000000002
decision_type=2 2 2 2 2 2 2 2 2 2 2 8 2 2 2 2 8 2 2 2 2 2 2 2 2 2 2 2 2 2
left_child=2 12 29 6 -5 -6 7 9 -8 -4 -9 -12 13 14 -2 16 17 -15 19 20 -17 22 28 -23 -24 -26 -16 -21 -3 -1
right_child=1 21 3 4 5 -7 8 10 -10 -11 11 -13 -14 15 26 18 -18 -19 -20 27 -22 23 24 -25 25 -27 -28 -29 -30 -31
leaf_value=-0.078761937646001368 -0.00032345466650249505 0.028930114351184484 -0.23436485388602907 -0.010346998240651752 -0.08510851983208767 0.012552168431940985 0.091561477438028352 -0.024381886542932097 -0.011140440709755124 0.093738734140801069 0.1298812184639864 -0.015376200060022209 0.058232378507774199 0.020191723003721986 0.0048374257250548914 0.007694066770383143 0.029692074994893909 -0.092172676389966096 -0.29700019886963047 0.15265246092362048 -0.34068232841971663 -0.085101288591198698 0.092746773779524269 0.02287028336177746 0.16101953258887106 -0.098678913312417987 -0.1091544754962849 0.056340515068459419 -0.27307849729761918 0.25674562546237212
leaf_weight=520222 3696427 3071491 164970 668305 675407 173691 323861 1578450 3281650 13022 133179 216406 329064 319324 79928 142514 704890 211807 6440 102615 7761 126440 564524 331680 46584 77522 203236 327230 7927 6477
leaf_count=520222 3696427 3071491 164970 668305 675407 173691 323861 1578450 3281650 13022 133179 216406 329064 319324 79928 142514 704890 211807 6440 102615 7761 126440 564524 331680 46584 77522 203236 327230 7927 6477
internal_value=0 0.164513 -0.219701 -0.181329 -0.410027 -0.651311 -0.12057 -0.294194 -0.0191536 -2.10361 -0.127154 0.399615 0.056537 0.0267175 -0.0577775 0.211212 0.0635469 -0.246175 0.522377 0.561146 -0.102979 0.321161 0.368633 -0.0692961 0.758156 -0.011994 -0.769783 0.793326 0.281527 -0.746361
internal_weight=0 1.03574e+07 7.75564e+06 7.22894e+06 1.5174e+06 849098 5.71154e+06 2.10603e+06 3.60551e+06 177992 1.92804e+06 349585 6.13124e+06 5.80217e+06 3.97959e+06 1.82258e+06 1.23602e+06 531131 586560 580120 150275 4.22617e+06 3.76805e+06 458120 688630 124106 283164 429845 3.07942e+06 526699
internal_count=18113044 10357404 7755640 7228941 1517403 849098 5711538 2106027 3605511 177992 1928035 349585 6131236 5802172 3979591 1822581 1236021 531131 586560 580120 150275 4226168 3768048 458120 688630 124106 283164 429845 3079418 526699
shrinkage=0.1


Tree=15
num_leaves=31
num_cat=0
split_feature=4 4 10 0 0 3 2 5 13 0 1 1 0 0 4 0 0 0 1 6 4 3 3 10 6 13 0 0 1 0
split_gain=531066 205791 99757.2 103594 168347 95868.1 85859.6 121206 279846 305024 137009 130538 91336.5 121573 76362.4 75316.8 74746.7 74601 69042.6 97539.4 67791.7 67790.3 66884 64923.1 64780.2 63495.6 260141 81653.9 62846.7 90558.8
threshold=11.480096133399007 9.9941277224940048 13.500000000000002 1248.5000000000002 1294.5000000000002 4.5000000000000009 13.500000000000002 88.500000000000014 142.50000000000003 106.50000000000001 2.5000000000000004 1.0000000180025095e-35 643.50000000000011 746.50000000000011 13.228935582428543 1422.5000000000002 1219.5000000000002 119.50000000000001 1.0000000180025095e-35 4.5000000000000009 12.184541328870031 13.500000000000002 11.500000000000002 102.50000000000001 -1.0000000180025095e-35 142.50000000000003 159.50000000000003 159.50000000000003 1.5000000000000002 1143.5000000000002
decision_type=2 2 2 2 2 2 2 2 2 2 2 2 2 2 2 2 2 2 2 2 2 2 2 2 2 2 2 2 2 2
left_child=1 5 3 14 -5 -1 7 10 9 11 12 -9 21 -14 22 -7 -15 -10 19 20 23 -3 -2 24 25 26 -4 -27 -16 -30
right_child=2 6 18 4 -6 15 -8 8 17 -11 -12 -13 13 16 28 -17 -18 -19 -20 -21 -22 -23 -24 -25 -26 27 -28 -29 29 -31
leaf_value=-0.052874875335866357 0.022834287589158536 0.0016681478122587213 -0.29226542637738467 0.10415726189431176 0.0064437545240577992 -0.02071369218308057 0.013322843149919827 -0.2043105704326619 0.11582548587772515 0.047583414166781357 -0.088010963486937752 0.10931121472643915 -0.081745685944834959 -0.015654161858925559 0.048584127928973153 0.15139860258798585 -0.32366850442798695 0.034055613060801009 -0.016494080117652458 0.066080382456140924 0.042899193232673966 0.14951788548728576 -0.079040082061669778 -0.21145366503875906 -0.069197613611122977 0.14641512013988706 0.013732161655406212 0.01184773386595037 0.051549075104443454 0.32800996162977802
leaf_weight=1547048 3693317 2033672 33538 437221 295474 1566143 1946312 110349 231136 141519 251137 15086 318451 2781243 94050 25845 7901 215689 918789 332281 305479 31492 65590 16194 141255 53251 161897 294291 23693 23701
leaf_count=1547048 3693317 2033672 33538 437221 295474 1566143 1946312 110349 231136 141519 251137 15086 318451 2781243 94050 25845 7901 215689 918789 332281 305479 31492 65590 16194 141255 53251 161897 294291 23693 23701
internal_value=0 -0.134163 0.218536 0.302519 0.647523 -0.35147 -0.0497826 -0.107817 0.27956 -0.53052 -0.158796 -1.66591 -0.123776 -0.2321 0.237709 -0.179195 -0.165267 0.76354 0.0461384 0.191064 0.0358945 0.0392273 0.210567 -0.135548 -0.0887108 0.0682281 -0.387791 0.324664 0.959026 1.89803
internal_weight=0 1.1223e+07 6.89002e+06 4.63305e+06 732695 3.13904e+06 8.08399e+06 6.13768e+06 713779 266954 5.4239e+06 125435 5.17276e+06 3.1076e+06 3.90035e+06 1.59199e+06 2.78914e+06 446825 2.25698e+06 1.33819e+06 1.0059e+06 2.06516e+06 3.75891e+06 700426 684232 542977 195435 347542 141444 47394
internal_count=18113044 11223023 6890021 4633046 732695 3139036 8083987 6137675 713779 266954 5423896 125435 5172759 3107595 3900351 1591988 2789144 446825 2256975 1338186 1005905 2065164 3758907 700426 684232 542977 195435 347542 141444 47394
shrinkage=0.1


Tree=16
num_leaves=31
num_cat=0
split_feature=4 4 4 6 0 1 0 1 14 9 1 7 1 1 13 2 0 1 2 0 13 1 0 13 0 1 0 1 0 0
split_gain=439419 136666 109780 102390 116791 139530 122762 128296 98923.9 79539.3 116203 276760 113927 147133 133556 133496 108385 95371.9 91409.8 125271 218584 87264.8 78703.1 157747 175823 186863 80679.3 72767.9 154948 71713.7
threshold=10.88109895322974 12.068485761011138 8.4307632494519797 6.5000000000000009 1233.5000000000002 2.5000000000000004 1304.5000000000002 1.5000000000000002 5.5000000000000009 17.150000000000002 1.5000000000000002 11.050000000000002 1.5000000000000002 1.0000000180025095e-35 140.50000000000003 1.0000000180025095e-35 290.50000000000006 2.5000000000000004 3.5000000000000004 106.50000000000001 142.50000000000003 2.5000000000000004 239.50000000000003 140.50000000000003 106.50000000000001 1.0000000180025095e-35 119.50000000000001 1.0000000180025095e-35 1313.5000000000002 1307.5000000000002
decision_type=2 2 2 2 2 2 2 2 2 10 2 8 2 2 2 2 2 2 2 2 2 2 2 2 2 2 2 2 2 2
left_child=2 3 -1 4 5 8 -6 27 -2 10 18 21 13 14 16 -16 -11 -13 19 20 -4 -12 23 24 25 -10 -25 -8 -29 -9
right_child=1 -3 9 -5 6 -7 7 29 22 12 11 17 -14 -15 15 -17 -18 -19 -20 -21 -22 -23 -24 26 -26 -27 -28 28 -30 -31
leaf_value=-0.063530609280793071 -0.024144660115693498 0.029113561296117696 -0.17303156919182397 0.061670579396190008 0.055773997966201139 -0.0645908037608212 0.0033222694708083542 -0.17981476121116152 -0.20552870609696161 -0.2215002630748607 0.12764498116608161 0.0057709786940800881 -0.071642240943177948 0.090767742710608001 0.087793029398394645 -0.0067749570523004954 -0.019968852128236542 -0.095093635012609645 -0.040166812402419323 -0.0016956762035314453 0.04631232200813748 0.014379716454946501 0.00097262672979147279 0.12639870516764914 0.035705262488148717 0.16228465912878945 0.039400494412699376 0.086748233837363284 -0.1010486391238177 0.06181061032188865
leaf_weight=526699 1308441 3385752 116327 306399 748131 361154 457269 12751 73532 46106 195616 204730 172225 213376 185828 758831 63356 172924 2550078 1613830 74548 104284 3224069 177381 172144 17007 267121 55362 212853 334920
leaf_count=526699 1308441 3385752 116327 306399 748131 361154 457269 12751 73532 46106 195616 204730 172225 213376 185828 758831 63356 172924 2550078 1613830 74548 104284 3224069 177381 172144 17007 267121 55362 212853 334920
internal_value=0 0.123599 -0.196279 0.0502032 0.026817 -0.0447153 0.246794 0.0300237 -0.00327716 -0.160551 -0.219847 0.165396 0.046709 0.150402 -0.0028866 0.118279 -1.04855 -0.404139 -0.279786 -0.107565 -0.873648 0.882593 0.0759929 0.378104 -0.236274 -1.36438 0.741176 -0.209333 -0.622857 0.529489
internal_weight=0 1.11143e+07 6.99876e+06 7.72853e+06 7.42214e+06 5.60085e+06 1.82129e+06 1.07316e+06 5.2397e+06 6.47206e+06 5.03234e+06 677554 1.43972e+06 1.2675e+06 1.05412e+06 944659 109462 377654 4.35478e+06 1.8047e+06 190875 299900 3.93125e+06 707185 262683 90539 444502 725484 268215 347671
internal_count=18113044 11114286 6998758 7728534 7422135 5600849 1821286 1073155 5239695 6472059 5032337 677554 1439722 1267497 1054121 944659 109462 377654 4354783 1804705 190875 299900 3931254 707185 262683 90539 444502 725484 268215 347671
shrinkage=0.1


Tree=17
num_leaves=31
num_cat=0
split_feature=4 4 14 0 1 7 14 5 15 3 1 3 4 6 10 13 10 0 4 13 0 0 0 1 3 3 1 13 0 0
split_gain=365053 154242 88585.7 77248.1 73215.6 98150.5 73806.4 60249.5 59700 52125 91088.8 72117.1 67553.1 56541.8 51084 53149.1 48971.2 51072.1 45432.8 88658.7 64027.1 104556 71070.2 74971.6 44493.3 59521.6 44053.2 44607.6 113744 41693.9
threshold=11.551424764074545 9.686263926361681 7.5000000000000009 1264.5000000000002 2.5000000000000004 5.5500000000000007 6.5000000000000009 102.50000000000001 4.5000000000000009 6.5000000000000009 1.5000000000000002 8.5000000000000018 12.687806600599229 23.500000000000004 87.500000000000014 132.50000000000003 51.500000000000007 634.50000000000011 12.571397364151728 221.50000000000003 798.50000000000011 968.50000000000011 953.50000000000011 1.0000000180025095e-35 2.5000000000000004 4.5000000000000009 1.0000000180025095e-35 140.50000000000003 106.50000000000001 535.50000000000011
decision_type=2 2 2 2 2 8 2 2 2 2 2 2 2 2 2 2 2 2 2 2 2 2 2 2 2 2 2 2 2 2
left_child=1 3 -3 29 6 -6 -2 8 -4 12 11 -11 16 -14 15 -7 18 -18 -8 20 -20 22 23 -22 -5 -26 27 28 -9 -1
right_child=4 2 7 24 5 14 9 26 -10 10 -12 -13 13 -15 -16 -17 17 -19 19 -21 21 -23 -24 -25 25 -27 -28 -29 -30 -31
leaf_value=-0.025362539632645453 0.0047893924471626385 -0.018598541208050955 0.0060527511405524641 -0.062204130256501192 0.086065909334343924 0.010609099523562404 0.035405327215074472 -0.16264746572369415 -0.01633477595039726 -0.097093786754429756 0.13169774939043608 0.0054876945342296393 0.075485760165822618 -0.11374557375771838 0.14406886841358996 -0.067570432899080921 0.032200347367094595 -0.032301244647295509 0.19103633154766211 0.078278655561359975 -0.51955401977359328 -0.042616597039904974 -0.50727832828064157 0.06303432434103988 0.3181944871272 0.036469232856214499 0.099747838993408694 0.051952391992326742 0.052118606109103065 -0.053143480326904614
leaf_weight=1108041 1736314 3089036 4155174 44964 77041 125932 2775937 40180 1669814 95099 42749 245331 443479 16373 15078 280977 236526 255208 6752 46060 3311 41428 10121 6636 7893 150362 95310 173857 63844 1054217
leaf_count=1108041 1736314 3089036 4155174 44964 77041 125932 2775937 40180 1669814 95099 42749 245331 443479 16373 15078 280977 236526 255208 6752 46060 3311 41428 10121 6636 7893 150362 95310 173857 63844 1054217
internal_value=0 -0.105705 -0.0476417 -0.333672 0.190663 -0.177281 0.221464 0.0213058 -0.00364946 0.292795 -0.0589091 -0.231684 0.327873 0.687482 -0.366775 -0.433751 0.278977 -0.0127572 0.328611 -0.28924 -1.01274 -1.33369 -3.20715 -1.30888 0.255791 0.505203 0.410823 0.209607 -0.308363 -0.389072
internal_weight=0 1.16527e+07 9.28722e+06 2.36548e+06 6.46035e+06 499028 5.96132e+06 6.19818e+06 5.82499e+06 4.22501e+06 383179 340430 3.84183e+06 459852 421987 406909 3.38198e+06 491734 2.89024e+06 114308 68248 61496 20068 9947 203219 158255 373191 277881 104024 2.16226e+06
internal_count=18113044 11652692 9287215 2365477 6460352 499028 5961324 6198179 5824988 4225010 383179 340430 3841831 459852 421987 406909 3381979 491734 2890245 114308 68248 61496 20068 9947 203219 158255 373191 277881 104024 2162258
shrinkage=0.1


Tree=18
num_leaves=31
num_cat=0
split_feature=4 4 2 2 1 1 0 0 5 1 7 1 7 9 1 7 0 1 0 2 13 2 2 0 0 5 13 2 0 10
split_gain=308989 131946 84669.4 95344.2 92360 114661 110093 108030 84411.9 79887.6 103587 86681.1 394513 203690 389086 367575 183702 177977 144412 120057 122254 115533 216344 123206 109624 96606.6 95291.9 145186 97749.1 78400
threshold=10.385642572040945 11.800708316639879 13.500000000000002 3.5000000000000004 1.5000000000000002 2.5000000000000004 1332.5000000000002 1292.5000000000002 105.50000000000001 2.5000000000000004 5.0500000000000007 1.5000000000000002 6.0500000000000007 14.050000000000002 1.0000000180025095e-35 7.7500000000000009 1083.5000000000002 1.0000000180025095e-35 751.50000000000011 1.0000000180025095e-35 142.50000000000003 13.500000000000002 9.5000000000000018 1313.5000000000002 1219.5000000000002 92.500000000000014 142.50000000000003 1.0000000180025095e-35 119.50000000000001 78.500000000000014
decision_type=2 2 2 2 2 2 2 2 2 2 8 2 8 10 2 8 2 2 2 2 2 2 2 2 2 2 2 2 2 2
left_child=2 8 3 -1 6 -6 -4 -7 9 11 -11 13 -13 14 19 24 18 26 -14 20 -2 22 -17 -23 29 -18 27 -15 -28 -16
right_child=1 -3 4 -5 5 7 -8 -9 -10 10 -12 12 16 17 15 21 25 -19 -20 -21 -22 23 -24 -25 -26 -27 28 -29 -30 -31
leaf_value=-0.014060954723037991 -0.18601458321920616 0.021023235697262461 0.029775818202903537 -0.046231581451799494 0.12167823303721613 0.04578414846998928 -0.057336884787947386 -0.17329328677043851 0.046915322203481734 0.058853484861761111 -0.057385982596658058 0.12108579695178244 0.2829472996314723 -0.1955373207330513 -0.19394296475975775 -0.01357877998462406 0.042393690281048134 0.070614144149193023 -0.061188954718746739 0.0060968684385073538 0.076734628207897629 0.096409850894559349 -0.14628631202684991 -0.060857468431415665 -0.080996096777948653 -0.23696729951463857 0.083344513314008828 0.0065425420773383113 0.0017528119388248763 0.12022099172783285
leaf_weight=1972282 63192 4728948 280893 1728728 130935 78963 300043 31483 372709 91748 466361 318878 12528 57741 227295 523820 483431 569235 457265 3307222 24603 137131 160479 78234 190885 12704 171150 92522 1033405 8231
leaf_count=1972282 63192 4728948 280893 1728728 130935 78963 300043 31483 372709 91748 466361 318878 12528 57741 227295 523820 483431 569235 457265 3307222 24603 137131 160479 78234 190885 12704 171150 92522 1033405 8231
internal_value=0 0.0753528 -0.226387 -0.290877 0.0638645 0.583783 -0.152163 -0.166646 0.00336824 -0.0170843 -0.382773 0.00865283 0.246425 -0.0373192 -0.149088 -0.608433 -0.0719599 0.23693 -0.520119 0.0303296 -1.12384 -0.24597 -0.447008 0.392806 -1.37317 0.352404 0.0397883 -0.711099 0.133458 -1.82964
internal_weight=0 1.35897e+07 4.52333e+06 3.70101e+06 822317 241381 580936 110446 8.86077e+06 8.48806e+06 558109 7.92995e+06 1.28481e+06 6.64514e+06 4.72109e+06 1.32608e+06 965928 1.92405e+06 469793 3.39502e+06 87795 899664 684299 215365 426411 496135 1.35482e+06 150263 1.20456e+06 235526
internal_count=18113044 13589717 4523327 3701010 822317 241381 580936 110446 8860769 8488060 558109 7929951 1284806 6645145 4721092 1326075 965928 1924053 469793 3395017 87795 899664 684299 215365 426411 496135 1354818 150263 1204555 235526
shrinkage=0.1


Tree=19
num_leaves=31
num_cat=0
split_feature=4 3 0 1 7 9 1 0 4 1 4 5 6 6 0 1 0 1 7 1 1 0 7 4 4 7 9 1 6 3
split_gain=253995 91140.4 188576 130801 239053 160548 275426 346286 206263 168528 113890 108150 88587.3 85199.4 82683.5 115529 187625 105719 100542 118665 106684 88565.7 93161.1 79997 74882.7 68394.5 67608.2 109165 65135 64519.3
threshold=11.003631997966894 1.0000000180025095e-35 1083.5000000000002 1.5000000000000002 6.6500000000000012 7.0500000000000007 1.0000000180025095e-35 996.50000000000011 13.118831313920177 1.0000000180025095e-35 12.553106761161422 70.500000000000014 17.500000000000004 4.5000000000000009 1194.5000000000002 1.5000000000000002 1203.5000000000002 2.5000000000000004 12.050000000000002 1.0000000180025095e-35 1.0000000180025095e-35 1292.5000000000002 11.15 13.228935582428543 8.4307632494519797 19.450000000000003 21.600000000000005 1.5000000000000002 4.5000000000000009 6.5000000000000009
decision_type=2 2 2 2 8 10 2 2 2 2 2 2 2 2 2 2 2 2 8 2 2 2 8 2 2 10 10 2 2 2
left_child=14 2 3 5 -5 6 28 8 11 13 -4 -8 25 -7 24 18 -17 -18 20 -20 -16 -19 -23 -3 -1 -6 29 -28 -2 -26
right_child=1 23 10 4 12 9 7 -9 -10 -11 -12 -13 -14 -15 15 16 17 21 19 -21 -22 22 -24 -25 26 -27 27 -29 -30 -31
leaf_value=-0.05588658710382937 0.012746972771511801 -0.0011971496269888597 0.047073634860055558 0.10162705550194387 -0.0058684781801912715 0.0055585095766090909 -0.052370244051313963 -0.2776402116474585 -0.40000045605953 0.086432791558659613 0.16921759935236844 0.075540356232538561 -0.31749596901575006 0.069104617287864475 -0.0061234336218338199 0.52974796981560235 0.07681520973316254 0.01589765202128662 -0.017459848049572464 0.073954663858863748 -0.093190420053574224 0.018207779945138721 -0.29119015735693143 0.066672812773740278 -0.025331917370283383 -0.071211229949904475 0.029814153045703465 -0.10826465431512539 0.090739186515405287 0.0032324440367902732
leaf_weight=507352 785439 5129784 1037892 123227 268156 1012582 244974 69955 14745 517477 82399 90530 12139 266523 361323 7920 290852 148978 364848 232488 230516 17612 21751 179753 3968632 397845 551969 63884 123984 987515
leaf_count=507352 785439 5129784 1037892 123227 268156 1012582 244974 69955 14745 517477 82399 90530 12139 266523 361323 7920 290852 148978 364848 232488 230516 17612 21751 179753 3968632 397845 551969 63884 123984 987515
internal_value=0 0.102471 0.198677 0.0954507 -0.264992 0.187846 -0.0755763 -0.745138 -0.339435 0.382801 0.560575 -0.178558 -0.497814 0.187994 -0.136846 0.0597858 0.46997 0.390182 -0.108235 0.181194 -0.400352 -0.193511 -1.52758 0.0110057 -0.191065 -0.449019 -0.157575 0.154909 0.233799 -0.196405
internal_weight=0 1.03574e+07 5.04787e+06 3.92758e+06 801367 3.12621e+06 1.32963e+06 420204 350249 1.79658e+06 1.12029e+06 335504 678140 1.2791e+06 7.75564e+06 1.67629e+06 487113 479193 1.18918e+06 597336 591839 188341 39363 5.30954e+06 6.07935e+06 666001 5.572e+06 615853 909423 4.95615e+06
internal_count=18113044 10357404 5047867 3927576 801367 3126209 1329627 420204 350249 1796582 1120291 335504 678140 1279105 7755640 1676288 487113 479193 1189175 597336 591839 188341 39363 5309537 6079352 666001 5572000 615853 909423 4956147
shrinkage=0.1


Tree=20
num_leaves=31
num_cat=0
split_feature=4 14 1 7 10 15 2 1 4 1 0 4 14 5 0 13 0 0 1 5 1 4 3 0 0 0 1 7 4 9
split_gain=213652 99019.5 85247.1 92730.9 79646 78036 66652.6 63606.9 56893.5 55208.6 53872.4 52589 50048.8 49372.2 48127.2 67187.5 182074 101226 100877 68857.7 54796.8 46515.8 44598.8 58384 43640.3 42758.4 55466.9 73846.3 62275.4 52685.3
threshold=10.385642572040945 6.5000000000000009 2.5000000000000004 13.950000000000001 87.500000000000014 4.5000000000000009 13.500000000000002 1.5000000000000002 10.341773334232457 1.0000000180025095e-35 1219.5000000000002 7.6680258403856074 19.500000000000004 104.50000000000001 634.50000000000011 142.50000000000003 106.50000000000001 92.500000000000014 1.0000000180025095e-35 115.50000000000001 1.0000000180025095e-35 10.269657083319538 1.0000000180025095e-35 252.50000000000003 738.50000000000011 1083.5000000000002 1.5000000000000002 1.5500000000000003 10.739011176695771 7.0500000000000007
decision_type=2 2 2 8 2 2 2 2 2 2 2 2 2 2 2 2 2 2 2 2 2 2 2 2 2 2 2 8 2 10
left_child=4 -2 5 -4 6 12 10 -6 -9 21 11 -1 22 -5 15 16 18 19 -13 -17 24 -8 23 -3 -16 26 29 -28 -29 -25
right_child=1 2 3 13 7 -7 9 8 -10 -11 -12 14 -14 -15 20 17 -18 -19 -20 -21 -22 -23 -24 25 -26 -27 27 28 -30 -31
leaf_value=-0.066846314357397255 -0.007050382149949872 0.073041268687393621 0.024319613115678415 -0.062635762072493231 -0.070718775277255383 -0.00040458111201514325 -0.031991667718619068 0.24038250640057798 -0.057035232961989146 0.036326048839911002 -0.28123385227229808 -0.1704535922976268 0.0042968202868719097 0.06171193564702615 -0.054367702328606639 0.097290632493614596 -0.0059289248548300977 -0.0032144172760088458 0.11594472778110299 -0.17759947235878384 -0.077273011704056496 0.12333760430928138 0.01652545482694244 0.0012965448125915021 -0.010455667710625215 0.053997840415520373 0.17456737589813168 0.28998135788636187 -0.052237228850484242 0.045584018589630057
leaf_weight=222137 3957829 352140 258257 377151 388296 2570242 264203 12861 12866 421465 7901 112034 1506976 34884 307593 156976 561243 942370 13815 9674 212560 20797 2693509 439089 856536 487073 16883 5464 198360 691860
leaf_count=222137 3957829 352140 258257 377151 388296 2570242 264203 12861 12866 421465 7901 112034 1506976 34884 307593 156976 561243 942370 13815 9674 212560 20797 2693509 439089 856536 487073 16883 5464 198360 691860
internal_value=0 0.0626588 0.117376 -0.226613 -0.18825 0.143106 -0.14613 -0.606297 0.916447 0.133381 -0.20416 -0.19809 0.202282 -0.521081 -0.165158 -0.0573314 -0.303051 0.0949038 -1.39014 0.813333 -0.305835 -0.20657 0.251434 0.357386 -0.220584 0.285947 0.194406 -0.264156 -0.430632 0.283895
internal_weight=0 1.35897e+07 9.63189e+06 670292 4.52333e+06 8.9616e+06 4.1093e+06 414023 25727 706465 3.40284e+06 3.39494e+06 6.39135e+06 412035 3.1728e+06 1.79611e+06 687092 1.10902e+06 125849 166650 1.37669e+06 285000 4.88438e+06 2.19087e+06 1.16413e+06 1.83873e+06 1.35166e+06 220707 203824 1.13095e+06
internal_count=18113044 13589717 9631888 670292 4523327 8961596 4109304 414023 25727 706465 3402839 3394938 6391354 412035 3172801 1796112 687092 1109020 125849 166650 1376689 285000 4884378 2190869 1164129 1838729 1351656 220707 203824 1130949
shrinkage=0.1


Tree=21
num_leaves=31
num_cat=0
split_feature=4 0 1 7 7 1 1 5 13 0 1 0 0 0 0 0 10 0 0 1 1 3 1 1 4 3 4 4 0 6
split_gain=195787 89005.8 117993 144210 129627 169187 113926 87768.1 217159 225566 114088 84353 138311 76171.2 80038.5 75775.7 74067.2 72416.3 137675 66713.9 80257.3 85814.7 66437.7 65026.4 67131.7 76119.4 61984 66554.3 61133.3 58953.3
threshold=11.659032335228266 1167.5000000000002 1.5000000000000002 4.0500000000000007 12.050000000000002 1.0000000180025095e-35 1.0000000180025095e-35 90.500000000000014 142.50000000000003 106.50000000000001 1.0000000180025095e-35 1219.5000000000002 1313.5000000000002 1390.5000000000002 1219.5000000000002 127.50000000000001 13.500000000000002 1251.5000000000002 1318.5000000000002 1.0000000180025095e-35 2.5000000000000004 8.5000000000000018 1.0000000180025095e-35 2.5000000000000004 10.425371768006178 1.0000000180025095e-35 10.496828049530672 10.458004646215425 1108.5000000000002 6.5000000000000009
decision_type=2 2 2 8 8 2 2 2 2 2 2 2 2 2 2 2 2 2 2 2 2 2 2 2 2 2 2 2 2 2
left_child=1 7 4 -4 5 -3 -6 23 9 10 -9 -8 -13 14 -7 -10 17 29 19 -19 21 -21 -18 24 25 -1 27 -26 -27 -2
right_child=16 2 3 -5 6 13 11 8 15 -11 -12 12 -14 -15 -16 -17 22 18 -20 20 -22 -23 -24 -25 26 28 -28 -29 -30 -31
leaf_value=-0.051850603134627096 0.016455781697446523 0.0011939736652765054 0.10187245948676855 0.013693590136992159 -0.0063753772415367036 -0.17304969892790178 -0.058051035440436029 -0.15153398533605933 0.080240188503582777 0.028410358389416246 0.089766656651362756 0.12288373557295117 -0.0035512325186411462 -0.20020682791017436 -0.044836601090344048 0.012089443711046616 0.01506030456758255 0.030357664371280214 -0.01976401780239935 0.16590570014684225 0.012373820102049475 -0.1718937539801966 -0.023794781134788959 -0.059559995262877835 0.0028652683937805921 -0.013190502032806268 -0.0084611810137130237 0.1208553895162692 -0.1026470277189751 0.15351050238310635
leaf_weight=785820 3346160 683584 250263 716331 689112 57444 53430 165520 369222 206918 22225 234936 136961 46364 319477 292320 1037158 118446 158936 182866 52487 7843 764405 322197 124497 2367767 4412126 77607 78940 31682
leaf_count=785820 3346160 683584 250263 716331 689112 57444 53430 165520 369222 206918 22225 234936 136961 46364 319477 292320 1037158 118446 158936 182866 52487 7843 764405 322197 124497 2367767 4412126 77607 78940 31682
internal_value=0 -0.0704521 0.0735949 0.365242 -0.0533142 -0.295709 0.187434 -0.12023 0.151033 -0.436023 -1.22969 0.594408 0.763207 -0.792547 -0.643767 0.50126 0.153426 0.230918 0.578095 0.919018 1.21876 1.52014 -0.0142595 -0.155303 -0.137224 -0.247733 -0.059806 0.481729 -0.160767 0.177413
internal_weight=0 1.24131e+07 3.1879e+06 966594 2.22131e+06 1.10687e+06 1.11444e+06 9.22516e+06 1.0562e+06 394663 187745 425327 371897 423285 376921 661542 5.69998e+06 3.89842e+06 520578 361642 243196 190709 1.80156e+06 8.16895e+06 7.84676e+06 3.23253e+06 4.61423e+06 202104 2.44671e+06 3.37784e+06
internal_count=18113044 12413061 3187902 966594 2221308 1106869 1114439 9225159 1056205 394663 187745 425327 371897 423285 376921 661542 5699983 3898420 520578 361642 243196 190709 1801563 8168954 7846757 3232527 4614230 202104 2446707 3377842
shrinkage=0.1


Tree=22
num_leaves=31
num_cat=0
split_feature=4 10 0 0 14 0 0 4 10 1 0 13 0 1 6 9 4 1 5 4 0 13 6 11 0 3 1 0 9 1
split_gain=158713 74703.9 68660.3 69180.6 64090.9 57707.5 55327.6 52820.3 51655.3 112943 100554 165466 51888.1 105986 48747.3 57356.5 51196.9 49767.7 57890.5 54620.2 68689.1 74089.2 68320.5 79708.9 47869 124941 71278.7 457852 208069 470040
threshold=11.355021652970242 13.500000000000002 1242.5000000000002 1294.5000000000002 7.5000000000000009 1276.5000000000002 1443.5000000000002 11.408992735956376 4.5000000000000009 1.0000000180025095e-35 113.50000000000001 140.50000000000003 780.50000000000011 1.5000000000000002 4.5000000000000009 20.050000000000004 12.036135049855437 1.0000000180025095e-35 59.500000000000007 12.834570138504819 798.50000000000011 236.50000000000003 23.500000000000004 8.5000000000000018 1216.5000000000002 2.5000000000000004 1.5000000000000002 1083.5000000000002 7.2500000000000009 1.0000000180025095e-35
decision_type=2 2 2 2 2 2 2 2 2 2 2 2 2 2 2 10 2 2 2 2 2 2 2 2 2 2 2 2 10 2
left_child=4 2 8 5 -1 -4 14 -5 12 10 11 -10 13 -2 15 16 -3 19 -19 20 -16 -22 -21 -24 26 -26 28 -28 29 -14
right_child=1 6 3 7 -6 -7 -8 -9 9 -11 -12 -13 24 -15 17 -17 -18 18 -20 22 21 -23 23 -25 25 -27 27 -29 -30 -31
leaf_value=-0.019429893973469461 -0.0076713668030516553 -0.026376101155195848 0.043228979812234149 0.1534865238479442 -0.0026295822376777652 0.11490909510878607 -0.29662818606026081 -0.00081157971689475297 -0.26823803607518731 0.12314016734042983 0.050986692091562404 0.025583670889387469 0.027484403494156918 -0.17874596594020062 0.036541930868721789 0.053946452331853134 0.0081019457612382037 0.062913965025870919 -0.063504291172478466 0.18320686101711239 -0.49606781484709722 0.14827187570401587 -0.36551997499906907 0.31620203479371889 -0.16338816584791716 0.0096222619716930576 -0.018479520223264691 0.11847026315156893 0.032906403003563671 -0.1117210091291681
leaf_weight=3402839 461055 1219808 340384 23767 6825057 167624 6420 333527 30263 130297 181411 52271 616916 39301 296852 132154 665739 54378 108498 46683 4974 2783 5140 2574 54289 180591 585476 418700 1323543 399730
leaf_count=3402839 461055 1219808 340384 23767 6825057 167624 6420 333527 30263 130297 181411 52271 616916 39301 296852 132154 665739 54378 108498 46683 4974 2783 5140 2574 54289 180591 585476 418700 1323543 399730
internal_value=0 0.10661 0.173824 0.431678 -0.0821908 0.668808 -0.0343422 0.0945225 0.123952 0.469608 0.0935476 -0.821529 0.0905487 -0.211086 -0.0269304 -0.0973918 -0.142028 0.245488 -0.212981 0.453489 0.288657 -2.64896 1.37651 -1.38044 0.132715 -0.303665 0.163363 0.386229 0.0677311 -0.272491
internal_weight=0 7.88515e+06 5.33914e+06 865302 1.02279e+07 508008 2.546e+06 357294 4.47384e+06 394242 263945 82534 4.0796e+06 500356 2.53958e+06 2.0177e+06 1.88555e+06 521882 162876 359006 304609 7757 54397 7714 3.57924e+06 234880 3.34436e+06 1.00418e+06 2.34019e+06 1.01665e+06
internal_count=18113044 7885148 5339145 865302 10227896 508008 2546003 357294 4473843 394242 263945 82534 4079601 500356 2539583 2017701 1885547 521882 162876 359006 304609 7757 54397 7714 3579245 234880 3344365 1004176 2340189 1016646
shrinkage=0.1


Tree=23
num_leaves=31
num_cat=0
split_feature=4 14 15 4 10 0 1 7 1 1 0 4 14 7 1 1 1 7 1 7 2 13 0 7 0 0 10 0 0 3
split_gain=129396 73298.9 57594.1 49236.9 52636.4 68498.3 48083.9 51480.3 43720.3 83856.3 65925.5 62800.2 39751.9 32017.1 162172 225560 127892 137757 131487 318597 78303.7 68683.1 61028 52506 46307.5 54743 51930.7 43958.3 37935.5 36322
threshold=10.696717582025419 6.5000000000000009 4.5000000000000009 8.0322063307085685 41.500000000000007 1427.5000000000002 2.5000000000000004 16.750000000000004 2.5000000000000004 1.5000000000000002 681.50000000000011 10.077818907685506 20.500000000000004 21.050000000000004 1.5000000000000002 1.0000000180025095e-35 1.5000000000000002 2.2500000000000004 1.0000000180025095e-35 7.1500000000000012 1.0000000180025095e-35 142.50000000000003 1083.5000000000002 13.050000000000002 1219.5000000000002 1318.5000000000002 65.500000000000014 1083.5000000000002 1216.5000000000002 1.0000000180025095e-35
decision_type=2 2 2 2 2 2 2 10 2 2 2 2 2 10 2 2 2 8 2 10 2 2 2 8 2 2 2 2 2 2
left_child=3 -2 6 -1 -5 8 12 -8 9 10 -6 -11 13 16 15 -15 18 -18 20 24 21 -3 -19 -21 26 -26 -20 -16 29 -24
right_child=1 2 -4 4 5 -7 7 -9 -10 11 -12 -13 -14 14 27 -17 17 22 19 23 -22 -23 28 -25 25 -27 -28 -29 -30 -31
leaf_value=-0.05161655397373606 -0.0062111757318017574 -0.16724568799038542 -0.0020237984402811967 -0.0039121481473359592 -0.015776116606700519 0.070790716534556306 0.020485743307955429 -0.047572379512871465 -0.14647339579726462 0.20474656620615528 -0.060053872511829559 0.0055340955062080192 0.00050051609514533356 0.017371392368637977 -0.068494199671405284 0.10360700369030201 0.13835442506474724 -0.015938309469467466 -0.15847420031454718 -0.022067617884732722 0.025626849557735778 0.053748378756817206 0.2182267098890745 0.045426012130328833 0.0048024042125740405 -0.14069351898888058 0.13292716266368537 0.014554089775980182 0.025081344594989077 0.075716559873685155
leaf_weight=300287 3558868 39800 2483744 3994349 890608 70789 209555 236663 31472 25695 540245 41194 1013317 843884 166623 473496 158630 175829 161068 184436 1728419 21748 22440 307314 55941 48091 6357 103217 130866 88099
leaf_count=300287 3558868 39800 2483744 3994349 890608 70789 209555 236663 31472 25695 540245 41194 1013317 843884 166623 473496 158630 175829 161068 184436 1728419 21748 22440 307314 55941 48091 6357 103217 130866 88099
internal_value=0 0.0587066 0.10836 -0.121687 -0.100513 -0.253773 0.160079 -0.156106 -0.298291 -0.27378 -0.32494 0.820603 0.184703 0.223313 0.338998 0.483664 0.164631 0.590323 0.0686162 -0.278922 0.2168 -0.891574 0.288745 0.201118 -1.14853 -0.624562 -1.4741 -0.367272 0.615143 1.04647
internal_weight=0 1.22184e+07 8.65954e+06 5.89464e+06 5.59435e+06 1.6e+06 6.17579e+06 446218 1.52921e+06 1.49774e+06 1.43085e+06 66889 5.72958e+06 4.71626e+06 1.58722e+06 1.31738e+06 3.12904e+06 575864 2.55317e+06 763207 1.78997e+06 61548 417234 491750 271457 104032 167425 269840 241405 110539
internal_count=18113044 12218405 8659537 5894639 5594352 1600003 6175793 446218 1529214 1497742 1430853 66889 5729575 4716258 1587220 1317380 3129038 575864 2553174 763207 1789967 61548 417234 491750 271457 104032 167425 269840 241405 110539
shrinkage=0.1


Tree=24
num_leaves=31
num_cat=0
split_feature=4 0 1 7 7 1 0 9 1 2 0 0 13 1 0 3 1 0 0 3 0 0 0 0 10 4 3 0 4 2
split_gain=116829 64415.2 84111.2 112954 99041.7 141525 80547.6 110437 73955.6 76429.4 126587 71441.6 380873 130831 50965.1 78320.5 56001.9 143489 95797.3 59773.8 50740 55547.1 112554 69944.8 49518.2 60816.1 52480.1 49278.2 48255.2 47377
threshold=11.659032335228266 1167.5000000000002 1.5000000000000002 7.2500000000000009 9.4500000000000011 1.0000000180025095e-35 573.50000000000011 21.600000000000005 1.0000000180025095e-35 13.500000000000002 1313.5000000000002 106.50000000000001 140.50000000000003 1.0000000180025095e-35 1438.5000000000002 8.5000000000000018 2.5000000000000004 1292.5000000000002 1310.5000000000002 5.5000000000000009 1390.5000000000002 1276.5000000000002 1307.5000000000002 1264.5000000000002 13.500000000000002 11.668757584557362 11.500000000000002 1239.5000000000002 9.3360470558915214 13.500000000000002
decision_type=2 2 2 8 8 2 2 10 2 2 2 2 2 2 2 2 2 2 2 2 2 2 2 2 2 2 2 2 2 2
left_child=1 6 4 -4 5 -3 7 11 -6 -10 -11 12 13 -1 15 16 -5 -18 -19 -20 21 23 -23 29 25 -2 -27 -17 -13 -7
right_child=24 2 3 14 8 20 -8 -9 9 10 -12 28 -14 -15 -16 27 17 18 19 -21 -22 22 -24 -25 -26 26 -28 -29 -30 -31
leaf_value=-0.1435107742881096 0.13081300032818896 0.0020036867910290363 0.077597865633100616 0.02135920638115928 -0.0046231227138673397 -0.14856783854411146 -0.01893103363353793 0.047557066125843636 -0.061235668523338685 0.10188553106252868 -0.010712615015611592 -0.025899231830783583 0.047870165837057305 0.070027256578945887 -0.35336417185260749 0.44220019416429812 0.016769578179489299 -0.2530468284401623 -0.086779938034368564 0.28594652178165103 -0.18352423412792188 0.11318406003905651 -0.074148826797473852 -0.24154393133416968 -0.0018591613705119991 0.017990861075873058 -0.097894851922561671 0.098461475043221613 0.0050683017102665972 -0.025349749959257158
leaf_weight=251851 47363 586926 342337 369757 785770 51439 4657222 437113 59435 267167 159426 605475 262546 32381 3919 4622 133471 42860 21549 5376 40114 44215 116788 30701 1801563 3811574 39483 42703 2978571 79327
leaf_count=251851 47363 586926 342337 369757 785770 51439 4657222 437113 59435 267167 159426 605475 262546 32381 3919 4622 133471 42860 21549 5376 40114 44215 116788 30701 1801563 3811574 39483 42703 2978571 79327
internal_value=0 -0.0544222 0.068121 0.31436 -0.039029 -0.283408 -0.096769 -0.00241879 0.143422 0.450037 0.598054 -0.0529984 -0.389695 -1.19184 0.0612124 0.0839229 -0.0181914 -0.439845 -1.60183 -0.123592 -0.774604 -0.642664 -0.227031 -1.0571 0.118517 0.181879 0.168027 1.32033 -0.00163235 -0.738197
internal_weight=0 1.24131e+07 3.1879e+06 966594 2.22131e+06 949510 9.22516e+06 4.56794e+06 1.2718e+06 486028 426593 4.13082e+06 546778 284232 624257 620338 573013 203256 69785 26925 362584 322470 161003 161467 5.69998e+06 3.89842e+06 3.85106e+06 47325 3.58405e+06 130766
internal_count=18113044 12413061 3187902 966594 2221308 949510 9225159 4567937 1271798 486028 426593 4130824 546778 284232 624257 620338 573013 203256 69785 26925 362584 322470 161003 161467 5699983 3898420 3851057 47325 3584046 130766
shrinkage=0.1


Tree=25
num_leaves=31
num_cat=0
split_feature=4 3 0 0 0 4 4 10 0 0 1 1 7 7 1 7 13 2 1 0 3 3 4 0 14 0 0 0 1 0
split_gain=96483 67264 99668.5 86508.4 74961 81250.7 74813.1 72696.9 66459.8 71583 86072.8 69386.7 140363 124236 210239 82692 59082.1 174025 61445.9 69992.1 51295.8 121385 52599.6 50064.8 49168.5 43483.8 43089 41669.1 45385.6 82554.8
threshold=11.355021652970242 1.0000000180025095e-35 1083.5000000000002 230.50000000000003 318.50000000000006 12.302086301545863 12.553106761161422 12.500000000000002 1365.5000000000002 850.50000000000011 1.5000000000000002 1.5000000000000002 2.8500000000000001 15.050000000000002 1.0000000180025095e-35 3.3500000000000001 142.50000000000003 1.0000000180025095e-35 1.0000000180025095e-35 76.500000000000014 11.500000000000002 14.500000000000002 8.4307632494519797 309.50000000000006 7.5000000000000009 562.50000000000011 573.50000000000011 968.50000000000011 1.0000000180025095e-35 996.50000000000011
decision_type=2 2 2 2 2 2 2 2 2 2 2 2 8 10 2 8 2 2 2 2 2 2 2 2 2 2 2 2 2 2
left_child=20 2 3 7 5 -5 -4 -2 9 10 16 13 -13 14 -11 -16 17 18 19 -3 22 26 -1 -7 -24 -18 -22 -6 -29 -30
right_child=1 8 6 4 27 23 -8 -9 -10 11 -12 12 -14 -15 15 -17 25 -19 -20 -21 21 -23 24 -25 -26 -27 -28 28 29 -31
leaf_value=-0.038888613760224039 0.091617517633226245 -0.14518775617587215 0.037617231333826551 -0.042949626181247966 0.012284015430387636 -0.095635337487431096 0.13756792100485379 0.019364358477301682 -0.047665731110650755 0.015329365441138396 -0.087558379989307336 0.11635426371644253 0.014341731742733635 0.02849608075277257 -0.13906033113255636 -0.041379995313365739 0.025929742322511412 -0.0091715196935510737 0.1244894140217247 -0.38278663367105975 0.25336398079753275 -0.053579308557942823 -0.015987563305224051 -0.46062211779800261 -0.00071630847384664749 -0.035170736038606695 0.078207990012499243 0.01151893291566063 0.0033844915437474111 -0.10802656006821131
leaf_weight=505904 196635 38113 821427 149953 1676006 7184 82399 477179 281937 511797 152257 173928 600779 840818 157214 193133 496248 342216 5611 18376 15836 84811 3159262 7881 6337910 152200 124173 234721 142126 125010
leaf_count=505904 196635 38113 821427 149953 1676006 7184 82399 477179 281937 511797 152257 173928 600779 840818 157214 193133 496248 342216 5611 18376 15836 84811 3159262 7881 6337910 152200 124173 234721 142126 125010
internal_value=0 0.0831224 0.176001 0.0887272 -0.00208798 -0.651907 0.467294 0.404496 -0.00872296 0.0271009 -0.172815 0.12433 0.372444 0.0114593 -0.255277 -0.852129 -0.0711761 -0.371189 -1.91129 -2.22479 -0.0640828 0.408303 -0.0746997 -2.86572 -0.0579634 0.115886 0.980194 0.0471492 -0.205629 -0.487519
internal_weight=0 7.88515e+06 3.92052e+06 3.0167e+06 2.34288e+06 165018 903826 673814 3.96463e+06 3.68269e+06 1.20502e+06 2.47767e+06 774707 1.70296e+06 862144 350347 1.05276e+06 404316 62100 56489 1.02279e+07 224820 1.00031e+07 15065 9.49717e+06 648448 140009 2.17786e+06 501857 267136
internal_count=18113044 7885148 3920521 3016695 2342881 165018 903826 673814 3964627 3682690 1205021 2477669 774707 1702962 862144 350347 1052764 404316 62100 56489 10227896 224820 10003076 15065 9497172 648448 140009 2177863 501857 267136
shrinkage=0.1


Tree=26
num_leaves=31
num_cat=0
split_feature=14 15 14 1 7 1 7 7 1 2 0 2 7 0 0 13 0 0 13 2 0 4 4 4 10 5 4 1 6 7
split_gain=83934.5 64626 47892 44162 48435.4 42757.9 241688 109138 257711 84101.1 123415 88868.3 70537.7 50834.2 45263.4 52055.1 41783.5 51167.8 40843.6 74862.3 51090.8 40496.6 35970.6 34326.4 33064 35577.2 32610.2 37003.6 31836.9 30527.2
threshold=7.5000000000000009 4.5000000000000009 19.500000000000004 2.5000000000000004 15.050000000000002 1.5000000000000002 13.350000000000003 18.350000000000005 1.0000000180025095e-35 13.500000000000002 1313.5000000000002 9.5000000000000018 1.5500000000000003 869.50000000000011 106.50000000000001 296.50000000000006 1283.5000000000002 1264.5000000000002 144.50000000000003 1.5000000000000002 127.50000000000001 11.355021652970242 10.425371768006178 10.859316198331284 78.500000000000014 69.500000000000014 11.920428491916976 1.0000000180025095e-35 3.5000000000000004 23.350000000000005
decision_type=2 2 2 2 10 2 8 8 2 2 2 2 10 2 2 2 2 2 2 2 2 2 2 2 2 2 2 2 2 10
left_child=5 2 3 21 -5 7 12 8 14 11 16 13 -7 24 15 -1 17 23 19 -9 -20 -2 -16 -11 25 -10 -22 -28 29 -8
right_child=1 -3 -4 4 -6 6 28 18 9 10 -12 -13 -14 -15 22 -17 -18 -19 20 -21 26 -23 -24 -25 -26 -27 27 -29 -30 -31
leaf_value=-0.13623487505983503 0.0087875273550330306 -0.0067287989829522173 -0.0034561449760471749 0.019437886676675478 -0.049974806472328701 0.11113017828010525 -0.010269321642158167 -0.12233881113587251 -0.16655829778988177 -0.063873314180009078 -0.11316472047423926 -0.16622824553807289 0.032685801772261373 -0.0089680213684235413 -0.02601257891496004 0.044735370499178265 0.10112104309132366 -0.13961064065955703 0.061391775499520844 -0.0061620285070587144 -0.0035372886436090658 0.0253020636567962 0.0019950726907896192 0.083620011466246841 0.060808676551770496 -0.046439451435426563 0.0051662551771069114 0.073126025745825871 -0.15671110673817457 -0.054443261886652564
leaf_weight=55974 3454748 3464499 2158222 185296 219744 170996 374787 65334 73303 24799 120371 170621 347749 84326 687277 22198 47546 24074 178182 367217 1119059 2604121 1377917 43383 10345 37156 202778 132454 20036 268532
leaf_count=55974 3454748 3464499 2158222 185296 219744 170996 374787 65334 73303 24799 120371 170621 347749 84326 687277 22198 47546 24074 178182 367217 1119059 2604121 1377917 43383 10345 37156 202778 132454 20036 268532
internal_value=0 0.0480675 0.094419 0.137484 -0.182202 -0.0964046 0.0741125 -0.138014 -0.267394 -0.826436 -0.3894 -1.12904 0.585437 -0.685512 -0.101529 -0.848459 0.249682 -0.142787 0.0361169 -0.237098 0.10851 0.158855 -0.0732561 0.299741 -1.10143 -1.26153 0.0465863 0.320179 -0.325745 -0.287083
internal_weight=0 1.20866e+07 8.62213e+06 6.46391e+06 405040 6.02641e+06 1.1821e+06 4.84431e+06 2.77929e+06 635924 260173 375751 518745 205130 2.14337e+06 78172 139802 92256 2.06502e+06 432551 1.63247e+06 6.05887e+06 2.06519e+06 68182 120804 110459 1.45429e+06 335232 663355 643319
internal_count=18113044 12086630 8622131 6463909 405040 6026414 1182100 4844314 2779290 635924 260173 375751 518745 205130 2143366 78172 139802 92256 2065024 432551 1632473 6058869 2065194 68182 120804 110459 1454291 335232 663355 643319
shrinkage=0.1


Tree=27
num_leaves=31
num_cat=0
split_feature=4 4 10 3 0 0 1 1 0 0 0 0 0 1 1 6 6 4 1 7 1 0 1 1 0 0 0 0 10 1
split_gain=73665.1 53286.4 53265.2 48167.2 82950.9 106875 186542 98175.7 93565.1 79809.8 71904.8 85644.8 64799.8 84604.5 53567.2 53561.5 104256 106164 83221.3 75975.7 58962.5 56554.8 51303.4 237484 68568.2 50984.1 50472.5 64208.5 46432.9 59040.9
threshold=10.385642572040945 13.610376371905142 87.500000000000014 1.0000000180025095e-35 1083.5000000000002 1167.5000000000002 1.5000000000000002 1.0000000180025095e-35 248.50000000000003 1251.5000000000002 1337.5000000000002 1365.5000000000002 1199.5000000000002 1.5000000000000002 2.5000000000000004 4.5000000000000009 1.0000000180025095e-35 10.518494573896797 1.5000000000000002 19.450000000000003 1.0000000180025095e-35 443.50000000000006 1.5000000000000002 2.5000000000000004 1248.5000000000002 244.50000000000003 1139.5000000000002 1129.5000000000002 55.500000000000007 1.0000000180025095e-35
decision_type=2 2 2 2 2 2 2 2 2 2 2 2 2 2 2 2 2 2 2 10 2 2 2 2 2 2 2 2 2 2
left_child=2 3 -1 4 8 6 7 -6 14 12 -11 -12 13 -7 -2 16 17 -10 21 -20 -17 -19 24 -24 -14 -16 27 -9 29 -18
right_child=1 -3 -4 -5 5 9 -8 26 15 10 11 -13 22 -15 25 20 28 18 19 -21 -22 -23 23 -25 -26 -27 -28 -29 -30 -31
leaf_value=-0.0076093339115894613 0.039983221537460659 0.10996828194132656 -0.045241093156146342 -0.0021413454039573131 0.10091164208420769 -0.032633150356585441 0.22843794643409976 -0.06812114507701357 0.21516616221979146 0.063388840323662474 -0.0425955532899489 0.050549721524355933 -0.070232801965292593 0.13643284062870575 -0.023157935016657322 0.046916515658355751 -0.041613842118415414 -0.018525934603189909 0.0052071502991895028 -0.069232247623384383 -0.026564338552956826 0.017627198575844091 -0.47103926888835884 -0.011941527163108775 0.10026195178200981 0.23505161243445372 0.052756595283077058 -0.3862556200289109 -0.0018720478201306953 -0.12681369914445659
leaf_weight=4109304 894187 47004 414023 7377677 86980 79126 71269 31643 22562 435678 195354 199547 93795 47289 221047 373649 263037 621458 242286 315850 154295 1424502 15771 39457 31514 7921 23644 7935 147498 117742
leaf_count=4109304 894187 47004 414023 7377677 86980 79126 71269 31643 22562 435678 195354 199547 93795 47289 221047 373649 263037 621458 242286 315850 154295 1424502 15771 39457 31514 7921 23644 7935 147498 117742
internal_value=0 0.0367925 -0.110538 0.0331034 0.0983435 0.316479 0.952031 0.319848 0.0366614 0.192741 0.353765 0.0447159 -0.242974 0.306106 0.289322 -0.0403916 -0.0897239 -0.00820022 -0.0269134 -0.369182 0.254413 0.0664573 -0.627449 -1.43042 -0.27355 -0.142253 -0.628439 -1.31904 -0.49507 -0.679588
internal_weight=0 1.35897e+07 4.52333e+06 1.35427e+07 6.16504e+06 1.359e+06 221471 150202 4.80603e+06 1.13753e+06 830579 394901 306952 126415 1.12316e+06 3.68288e+06 3.15494e+06 2.62666e+06 2.6041e+06 558136 527944 2.04596e+06 180537 55228 125309 228968 63222 39578 528277 380779
internal_count=18113044 13589717 4523327 13542713 6165036 1359002 221471 150202 4806034 1137531 830579 394901 306952 126415 1123155 3682879 3154935 2626658 2604096 558136 527944 2045960 180537 55228 125309 228968 63222 39578 528277 380779
shrinkage=0.1


Tree=28
num_leaves=31
num_cat=0
split_feature=14 15 4 14 1 7 1 1 1 7 1 7 2 13 7 13 2 0 7 7 0 10 1 7 7 1 9 2 0 0
split_gain=69225 56335.9 40472.2 37663.6 32754.7 37527.7 105675 208336 91509.5 114134 86400.3 280659 71171.2 75773.5 42914.9 37619.4 90493.9 35561.6 35471.3 34702.1 32998.5 43287.8 31381.9 168261 75400.7 165725 68656.8 56217.7 65542.7 35254
threshold=6.5000000000000009 4.5000000000000009 9.2655854835672855 18.500000000000004 2.5000000000000004 21.050000000000004 1.5000000000000002 1.0000000180025095e-35 1.5000000000000002 2.6500000000000008 1.0000000180025095e-35 8.0500000000000025 1.0000000180025095e-35 142.50000000000003 15.050000000000002 142.50000000000003 1.0000000180025095e-35 1078.5000000000002 2.6500000000000008 2.0500000000000003 1167.5000000000002 65.500000000000014 1.5000000000000002 8.9500000000000011 20.050000000000004 1.0000000180025095e-35 6.0500000000000007 13.500000000000002 1318.5000000000002 106.50000000000001
decision_type=2 2 2 2 2 10 2 2 2 8 2 10 2 2 8 2 2 2 10 10 2 2 2 8 8 2 8 2 2 2
left_child=22 2 -2 4 5 8 7 15 10 -10 12 18 13 -4 -13 16 -7 -11 20 -6 21 -12 24 -24 25 29 27 -27 -29 -1
right_child=1 -3 3 -5 19 6 -8 -9 9 17 11 14 -14 -15 -16 -17 -18 -19 -20 -21 -22 -23 23 -25 -26 26 -28 28 -30 -31
leaf_value=-0.071677890684023027 -0.014378398249374725 -0.0064871827440931623 -0.13910134926318948 -0.00022194118562734314 0.06832951939261174 -0.17341411962735487 -0.032308027273134747 0.094512550692997702 0.11600533831384302 -0.014892644862278884 -0.18493284597042703 -0.0061781393696592893 0.017481893724498241 0.048249492994332781 0.051507073505280138 0.020487810651570577 0.016457000030779465 0.042952128228519154 -0.056118574896791486 -0.024041558215870191 -0.085822318474923942 0.14573855772257482 0.066681174717281771 -0.020812870698856064 0.0036839639186693565 -0.12510715080609611 -0.025276426201819552 0.0089261660661915671 -0.12483760100934144 -0.0072550085194244543
leaf_weight=88832 732852 3680163 59814 2482604 46010 35426 242684 461493 170162 178187 81500 255304 2291636 33779 260619 875849 86131 263366 137675 350486 108378 4161 316754 718089 1598863 237947 223411 87575 62970 1940324
leaf_count=88832 732852 3680163 59814 2482604 46010 35426 242684 461493 170162 178187 81500 255304 2291636 33779 260619 875849 86131 263366 137675 350486 108378 4161 316754 718089 1598863 237947 223411 87575 62970 1940324
internal_value=0 0.0396263 0.0816186 0.101225 0.14444 0.16429 0.287935 0.389576 0.109565 0.464238 0.0424552 -0.23178 0.13991 -0.714839 0.229616 0.132527 -0.388781 0.196091 -0.949402 -0.133227 -1.22485 -1.6887 -0.0964467 0.0596809 -0.134553 -0.238312 -0.694476 -0.948493 -0.470246 -0.100753
internal_weight=0 1.28383e+07 9.15812e+06 8.42526e+06 5.94266e+06 5.54616e+06 1.70158e+06 1.4589e+06 3.84458e+06 611715 3.23287e+06 847637 2.38523e+06 93593 515923 997406 121557 441553 331714 396496 194039 85661 5.27476e+06 1.03484e+06 4.23992e+06 2.64106e+06 611903 388492 150545 2.02916e+06
internal_count=18113044 12838279 9158116 8425264 5942660 5546164 1701583 1458899 3844581 611715 3232866 847637 2385229 93593 515923 997406 121557 441553 331714 396496 194039 85661 5274765 1034843 4239922 2641059 611903 388492 150545 2029156
shrinkage=0.1


Tree=29
num_leaves=31
num_cat=0
split_feature=4 6 6 10 3 14 3 10 4 4 4 6 0 6 5 1 4 9 1 1 13 1 7 0 0 0 0 7 1 2
split_gain=68912.5 77066.5 92967.6 50230.8 42576.8 41708.3 41601.4 46561.9 33418.5 30862.3 49488.3 41809 30341 44180.4 41908.5 39296.5 36817.3 28002.6 127650 169596 90595.2 73061.4 167225 74706.3 60397.1 59487.4 46761.4 46264.7 264738 44819.4
threshold=12.096859967378284 6.5000000000000009 -1.0000000180025095e-35 117.00000000000001 11.500000000000002 8.5000000000000018 3.5000000000000004 62.500000000000007 13.610376371905142 11.433816662352543 11.408992735956376 4.5000000000000009 820.50000000000011 3.5000000000000004 40.500000000000007 1.0000000180025095e-35 8.2597121411485457 16.050000000000004 1.5000000000000002 1.0000000180025095e-35 140.50000000000003 1.5000000000000002 3.3500000000000001 1078.5000000000002 159.50000000000003 290.50000000000006 1078.5000000000002 5.0500000000000007 1.0000000180025095e-35 1.5000000000000002
decision_type=2 2 2 2 2 2 2 2 2 2 2 2 2 2 2 2 2 10 2 2 2 2 8 2 2 2 2 10 2 2
left_child=1 2 5 4 8 -1 -3 -8 -2 10 12 -11 13 -4 -15 16 -14 21 19 20 25 27 -23 -24 -22 -19 -20 28 -7 -29
right_child=3 6 9 -5 -6 17 7 -9 -10 11 -12 -13 15 14 -16 -17 -18 18 26 -21 24 22 23 -25 -26 -27 -28 29 -30 -31
leaf_value=-0.0081038378426462037 0.013966455415264221 0.067453158208320624 -0.041655077976354232 -0.23821531448991473 -0.080261004187176674 0.0084173166013251973 -0.033281700993400283 0.093362787331375402 0.098913910051762477 -0.07063908867213739 0.16059130651489395 -0.0033452011211623114 -0.058190869111217861 -0.0270128108906744 0.032761133051816146 -0.070859696788658708 0.0175632914747182 -0.14281079648755432 -0.069354723501134044 0.078886284599346934 0.061976314637846142 0.092239323471411602 -0.031896801013302147 0.026483653263035131 0.0037366094956506595 0.0015472762009760849 0.0010068648123038484 -0.049161430821309131 -0.10520446925944663 0.0026855245778451024
leaf_weight=4531209 3142100 235586 805074 7927 47398 706929 110331 39397 47004 265457 15571 141558 73522 299858 192655 71134 503629 63231 212383 444408 223292 265957 377669 522353 879124 52039 170103 175893 288858 3201395
leaf_count=4531209 3142100 235586 805074 7927 47398 706929 110331 39397 47004 265457 15571 141558 73522 299858 192655 71134 503629 63231 212383 444408 223292 265957 377669 522353 879124 52039 170103 175893 288858 3201395
internal_value=0 -0.0288129 -0.0405557 0.132044 0.138202 -0.005131 0.412579 0.000414777 0.152185 -0.221756 -0.169756 -0.472346 -0.183965 -0.272227 -0.036312 -0.00730327 0.0791314 0.0402235 0.140241 0.260105 0.067129 0.00330497 0.225725 0.0198593 0.155329 -0.776399 -0.380628 -0.0559982 -0.245421 -0.000147238
internal_weight=0 1.48686e+07 1.44833e+07 3.24443e+06 3.2365e+06 1.21148e+07 385314 149728 3.1891e+06 2.36846e+06 1.96144e+06 407015 1.94587e+06 1.29759e+06 492513 648285 577151 7.58363e+06 2.04458e+06 1.66209e+06 1.21769e+06 5.53905e+06 1.16598e+06 900022 1.10242e+06 115270 382486 4.37308e+06 995787 3.37729e+06
internal_count=18113044 14868615 14483301 3244429 3236502 12114843 385314 149728 3189104 2368458 1961443 407015 1945872 1297587 492513 648285 577151 7583634 2044580 1662094 1217686 5539054 1165979 900022 1102416 115270 382486 4373075 995787 3377288
shrinkage=0.1


Tree=30
num_leaves=31
num_cat=0
split_feature=4 6 6 10 3 3 3 0 1 0 0 0 10 4 1 9 7 1 1 0 4 4 1 10 1 13 0 0 1 10
split_gain=55912.9 64436.9 76641.7 40576.3 40180.1 94213.5 44800.8 40343 94925.9 135350 64715.5 66244.8 60494.1 58039.7 52823.3 80381.9 79725.2 77749.9 59773.5 107118 44532.9 78886.1 204846 78553.9 67976.5 44503.4 61624.4 60840.4 44457.6 53679.5
threshold=12.068485761011138 6.5000000000000009 -1.0000000180025095e-35 117.00000000000001 11.500000000000002 14.500000000000002 3.5000000000000004 1104.5000000000002 1.5000000000000002 1171.5000000000002 1321.5000000000002 1361.5000000000002 41.500000000000007 9.4544622805793299 1.5000000000000002 12.850000000000003 17.850000000000005 1.0000000180025095e-35 1.0000000180025095e-35 1025.5000000000002 11.218735148417073 11.162232310392639 2.5000000000000004 24.500000000000004 2.5000000000000004 140.50000000000003 92.500000000000014 150.50000000000003 1.0000000180025095e-35 41.500000000000007
decision_type=2 2 2 2 2 2 2 2 2 2 2 2 2 2 2 10 10 2 2 2 2 2 2 2 2 2 2 2 2 2
left_child=1 2 4 -2 6 -6 7 14 10 -10 13 28 20 -9 15 18 -16 25 -1 -20 21 23 -23 24 -11 27 -27 -17 -12 -30
right_child=3 -3 -4 -5 5 -7 -8 8 9 12 11 -13 -14 -15 16 17 -18 -19 19 -21 -22 22 -24 -25 -26 26 -28 -29 29 -31
leaf_value=0.0025200201857911771 0.012117942580827648 0.038572359742048631 -0.020192711350350681 -0.21439378435511169 0.097819192655517834 -0.042327771225280086 -0.007377320086151916 0.29099633375924344 0.21313098581494483 0.090819832038845749 -0.028209992929650027 0.0053347692086980784 0.09057612983818808 0.018296280251624952 0.018951151462160486 -0.12837286909887971 -0.052365432968222048 0.061476249089990623 -0.020823775308786333 -0.1629575513601722 0.047875340432985442 -0.42113279217327382 0.088739625768565922 -0.34626380402531365 -0.051423646711966899 0.078134857298361032 0.0052954058538300349 0.0072679433828735417 -0.19488813595392609 -0.041620305139421311
leaf_weight=1478442 3377825 369438 2361363 7927 124214 78144 5923451 7893 47472 73128 120426 291616 147963 697432 248174 52883 425523 382871 506820 59219 192336 15693 15826 5934 62149 138467 720664 88255 47196 44300
leaf_count=1478442 3377825 369438 2361363 7927 124214 78144 5923451 7893 47472 73128 120426 291616 147963 697432 248174 52883 425523 382871 506820 59219 192336 15693 15826 5934 62149 138467 720664 88255 47196 44300
internal_value=0 -0.0266395 -0.0372499 0.115876 -0.00483522 0.43699 -0.0124158 0.049493 0.175703 0.515863 0.0179839 -0.255854 0.366382 0.21348 -0.00495555 0.0453582 -0.260941 0.231542 -0.0805994 -0.356938 0.147768 -0.220786 -1.65121 0.098492 0.254703 0.0848571 0.17035 -0.435553 -0.681333 -1.2068
